the -0.488461 -1.297877 -0.160582 1.316694 0.680783 0.518325 1.136613 -0.459663 0.056767 0.633811 -0.152667 0.364868 -0.410724 -0.146256 -1.106192 -0.997517 -0.748056 -0.206091 0.240080 0.029688 -0.176475 -0.113255 0.179746 0.471078 1.298180 -1.969922 -0.247662 0.637869 -0.463860 1.380841 -0.461681 0.212462 -1.483934 0.417293 -0.857754 -0.495564 0.811137 0.223615 -0.697541 0.347192 0.469714 0.136857 -0.675288 -1.469569 -0.332909 -0.082621 0.532136 -1.265280 0.585398 -0.320173
</e1> -0.137698 -1.494040 0.058349 1.064300 -0.303734 0.298890 -0.011856 -0.257865 -0.126063 0.981873 0.275595 0.059865 -0.503569 -0.656536 -0.147581 0.284086 0.211721 -0.546315 -0.127682 -1.104292 -0.223479 -0.437012 -0.448692 -0.036642 1.104444 -1.212015 0.119517 -0.341861 -0.565584 1.017120 -0.492398 0.745737 -0.849739 -0.345006 -1.343470 -1.559157 0.132671 1.870190 -1.194311 -0.482534 0.491231 0.023295 -0.844696 -1.613481 0.400055 0.824352 0.182280 -1.079157 -0.370468 -0.780686
<e1> -0.085255 -1.132475 -0.292779 1.149179 -0.089077 0.131596 0.372874 -0.147722 -0.489506 1.142963 0.024274 0.052810 -0.617940 -0.618871 -0.296823 -0.260537 -0.152966 -0.683093 -0.053185 -0.845586 -0.263738 -0.220791 -0.508619 -0.385828 1.045726 -1.239551 0.349620 -0.365518 -0.308547 0.987544 -0.473281 0.530019 -0.754627 -0.297551 -1.383529 -1.413131 0.369179 1.464967 -1.160838 -0.364692 0.472365 0.161608 -0.839467 -1.488317 0.463781 0.690063 0.005387 -1.069380 -0.140118 -0.735283
</e2> 0.039202 -1.271156 -0.415280 1.284485 0.118722 0.549607 1.266121 -0.760413 0.494645 0.589953 -0.117655 -0.300483 -0.545983 0.313004 -0.276044 -0.216032 0.502439 -0.001243 -0.273017 -0.328724 0.376197 -0.567375 -0.108515 0.049834 0.505318 -1.127127 -0.044013 0.629419 -0.357590 1.083809 -0.349190 0.647265 -1.196398 -0.257660 -1.158322 -1.106427 0.357657 0.975154 -0.661221 -0.930330 -0.409239 0.248153 -0.606144 -1.326653 0.199499 -0.394457 0.673257 -0.103879 -0.371535 -0.346496
<e2> 0.320407 -1.228267 -0.407814 1.476909 0.121041 0.335287 1.061504 -0.810256 0.506244 0.765569 0.045689 -0.194553 -0.473112 0.174572 -0.377153 -0.145330 0.390443 -0.048650 -0.176964 -0.538820 0.489171 -0.728473 -0.126073 0.012434 0.441250 -1.166454 0.056801 0.503672 -0.079175 1.211169 -0.190443 0.976002 -1.234250 -0.335292 -1.315003 -1.116590 0.387983 1.130806 -0.865923 -1.086335 -0.229752 0.381775 -0.480116 -1.279643 0.308911 -0.278418 0.475129 -0.001125 -0.556082 -0.231806
of -0.038093 -1.508928 0.282510 0.426329 0.091454 0.667788 1.922471 0.059708 0.508294 0.382761 -1.045694 0.341926 0.224584 -0.584164 -0.177866 -0.906470 -0.634254 0.243019 0.809013 -0.593101 0.395779 -0.051277 -0.049731 -1.026363 0.701012 -1.060904 -0.068453 -0.835672 -0.221719 1.521851 -0.295191 -0.004027 -0.276908 0.096104 -2.290363 -0.170079 1.132382 0.504828 -0.838135 -0.621779 -0.234167 -0.261705 -0.824588 -1.936098 -0.719057 -0.649762 1.266277 -1.177228 -0.025578 -0.332920
a -0.923666 -0.734470 -0.103303 1.673051 0.463082 1.170656 2.261970 -0.493450 -0.032001 1.116948 0.117566 -0.053364 -0.521758 0.007343 -0.153507 -1.069297 0.207579 -0.743732 -0.306625 -0.182249 -0.810560 0.258940 0.036573 -0.738035 0.328341 -0.159400 0.419904 -0.544769 -0.126110 0.665698 -0.033436 1.245115 -1.968056 -0.338872 -0.850507 -0.111187 0.210500 0.982663 -1.070212 -0.873990 -1.017053 -1.412474 -0.821824 -2.176143 0.507493 0.947934 -0.508294 -0.708304 -0.511884 -0.151785
and -0.187975 -0.921735 -0.619694 0.425845 0.811997 0.923145 1.403920 -0.265711 -0.142988 0.291169 -0.912147 -1.567654 -0.302579 0.049633 -0.087884 -0.913854 0.146000 -0.731500 -0.847302 0.854567 0.052703 0.270430 0.179141 0.504005 0.541619 -0.970034 -0.522487 0.376330 -0.586908 -0.433286 -1.257891 -0.990236 -0.366160 -0.968524 -1.518684 -1.335558 1.328658 0.233709 -1.227826 -0.951114 -0.383119 0.350878 -1.549441 -2.069093 0.576640 -1.056575 0.501086 -0.732298 -0.424671 -0.952809
The -0.134258 -0.645054 -0.820458 0.839779 -0.073918 0.691347 0.511957 -0.245964 -0.507235 1.031423 0.555832 -0.097436 -0.599334 -0.861388 -0.132936 -0.743880 -0.408911 -0.987633 0.504555 -0.828936 -0.100000 0.742797 -0.310265 -0.077278 1.050176 -1.087608 0.847912 0.001725 0.119098 1.046995 0.152127 0.470894 -0.503138 0.087983 -1.313269 -1.484050 -0.150712 0.972609 -1.673199 -0.638045 1.053500 0.809824 -0.554335 -1.483179 0.369623 0.517893 -0.087617 -0.998361 0.747633 -0.381222
in -0.657621 -1.718407 -0.554859 0.851350 0.660488 0.346912 1.865273 -0.276381 0.191570 0.330923 1.075343 0.010892 -1.624485 0.294635 0.565269 -1.567229 0.348911 -0.559978 0.409479 -0.463405 0.285759 -0.052520 -1.635625 0.869034 1.459294 -1.062979 0.144952 0.319319 -1.289874 0.409293 0.490632 0.240447 -1.301025 0.551766 -0.588327 -1.001639 0.978502 0.170378 -0.332298 -0.591443 -0.356098 -0.502548 -2.080430 -1.058367 0.322394 0.497533 0.847549 0.187668 -1.189919 -0.410047
to -0.026512 -1.775186 0.285210 2.174632 0.620240 0.853408 1.824402 0.156170 -0.122563 -0.208534 -0.622477 -0.506537 -0.861314 -0.037097 -0.811011 0.003030 -0.118168 0.773623 -1.360453 -0.999009 -1.290031 0.643125 0.025449 1.122661 1.460772 -0.539783 0.549532 -0.660115 -0.364298 0.792188 -0.205059 -0.650271 -0.777251 1.019657 -0.104638 -1.079586 0.523059 0.631129 0.366115 -1.431532 -0.808610 0.430752 -0.319156 -1.993452 -0.322181 -0.107011 0.569407 -0.601436 0.998209 -1.433620
is -0.462922 -0.568707 -1.101808 1.677234 0.861557 0.573715 1.421794 -0.449189 0.925953 0.987140 0.281227 -0.011851 -1.082760 0.765469 -0.344262 -0.144404 0.901377 -0.482507 -0.535804 -0.377431 -0.204626 0.131372 0.293793 -0.787881 0.690488 -0.485615 1.276403 -0.031452 -0.843401 0.269058 -0.262810 -0.120279 -0.684765 0.939801 -1.380621 -0.561107 0.296184 1.407050 -0.480690 0.489808 1.259195 -0.835664 -0.396514 -0.904892 0.504178 0.024488 1.118553 -1.512854 0.818799 -0.278180
was -1.135348 -0.899712 -0.325620 0.669333 -0.094845 1.301250 1.120371 -1.121836 0.989539 0.637069 -0.914839 -0.965538 -0.235829 0.153720 0.824499 -0.444008 -0.546570 -0.860436 0.137395 -1.477356 -0.749643 0.792428 -1.025474 -0.260130 1.402959 -0.490652 0.062406 0.903386 -0.340259 0.966497 0.056122 0.637560 -1.533810 0.267894 -0.062663 -1.435365 -0.640383 0.694465 -1.324782 0.296329 0.244379 0.179512 -1.338757 -1.166484 -0.130387 0.221256 -0.478054 -0.566835 -0.482796 -0.584729
from -1.496604 -0.837901 -0.175506 1.186738 1.114656 0.358917 1.138021 -0.585894 0.457163 -0.219655 0.196694 0.432164 -0.317643 0.118643 0.512770 0.712886 0.207578 -0.152574 0.551881 -0.404621 -0.712423 -0.429113 -0.364043 -0.128468 0.220649 -1.265348 0.052705 -0.221824 -0.407692 0.235183 -1.272213 1.192063 -1.258042 0.321820 -1.713616 -0.700632 0.338593 2.047203 -0.486987 -0.568134 0.568927 1.349482 -0.655612 -1.231502 -0.701730 -0.506463 -0.272274 0.003101 0.096521 -1.826529
by -0.338830 -1.568410 -0.756664 1.204477 0.533100 0.961085 1.136475 0.341330 0.303314 1.159865 -0.411725 1.086737 0.141955 0.220823 -0.190612 0.512291 -0.358627 -0.457060 -0.749453 -0.225654 0.366929 0.466504 0.086284 -0.333719 0.716697 -0.889127 -1.051542 1.154580 0.178641 -0.014485 -0.265725 -0.336395 -1.208737 1.652638 -1.844277 -1.365039 -0.472607 1.013089 -0.639234 -0.633348 -0.254420 -0.078663 -1.582573 -0.974864 0.255320 -0.530618 -0.598535 -0.715359 -0.154899 1.041318
with -0.631263 -0.206955 0.476558 0.600296 1.732587 0.651646 2.191501 0.262720 -0.762416 1.232314 0.018792 -0.286698 -0.021112 0.452051 -0.257990 -0.684429 0.398368 0.151499 -0.037377 -0.977473 0.226471 -1.486365 -0.040425 0.542666 0.459740 -0.199889 0.584756 1.134623 -0.524991 1.337065 -0.636316 0.160514 -0.565728 -0.911418 -0.480425 -1.094776 -0.344362 0.680949 -0.546734 0.297245 -0.742285 0.190568 -0.831321 -1.887224 0.972632 0.398222 0.614869 -0.701611 0.314118 0.663828
that -1.510606 -1.457023 0.122008 1.306566 -0.103593 1.033966 1.165630 -0.293788 0.184672 1.224581 -0.465781 -0.868572 -0.288943 0.054172 -0.580065 0.208710 -0.184994 -0.263701 -0.629234 0.660689 -0.676905 -0.705435 -1.105397 0.278360 0.354193 -1.810599 1.166972 0.533361 -1.399923 0.262977 0.340249 0.003798 -0.362061 0.180481 -1.385053 -0.205111 -0.407424 0.587986 -0.392586 -0.076095 -0.086248 -0.110824 -1.301857 -1.239952 -0.173265 -0.027213 -0.058963 0.329605 0.528020 -0.198681
on -0.405996 -0.575759 -0.249210 1.825219 -0.843276 1.261415 1.898484 -1.564339 -1.315917 -0.088324 0.113923 0.494217 -0.004756 -0.867036 0.466117 -0.475263 -0.585263 -0.396194 -0.750971 -0.573991 0.647894 -0.238414 -0.256960 -0.882435 0.735625 -1.429802 -0.743063 0.962411 -1.133622 0.908364 -0.992604 -0.575408 -0.507661 0.160579 -0.066329 -0.190796 -0.284136 0.156236 0.065596 -0.710867 0.210696 -0.231528 -0.466315 -1.359895 -0.143392 0.716668 0.674841 -0.353412 -0.154637 -0.258866
into -0.093666 -0.238748 -0.287118 1.060456 0.147088 0.945038 -0.113906 -1.386501 -0.194436 0.901045 0.805637 -0.483099 -0.989081 -0.236407 -0.681475 -0.074801 1.178186 0.353154 0.213322 0.632209 0.533786 0.402480 -0.681778 -0.281237 0.732852 -0.909867 -0.067325 0.750389 -0.085124 0.533426 -0.679866 0.377816 -1.664384 -0.567885 -0.178522 -1.905941 1.114562 1.356921 0.142286 -0.992381 1.031618 0.770772 1.055075 -1.746411 -0.053861 0.051018 0.236584 -0.271425 -0.682406 0.655306
for 0.166909 -0.794747 0.068980 0.177389 0.885139 0.451913 1.103806 -1.718482 0.398206 1.282037 -0.788294 0.152536 -1.252851 0.540697 -0.819676 -0.226930 0.652959 -0.746309 -1.329345 0.656387 -0.395412 1.365017 -0.271344 -0.417085 0.199010 -0.588206 -0.237625 0.499572 -0.716419 1.668335 -0.333541 0.090216 0.950835 0.267586 -0.308200 -0.289332 0.226429 1.342644 -0.843551 -0.578122 -0.156128 -0.520418 -1.139762 -1.810819 0.008095 0.012791 0.585133 0.111778 0.478971 -0.642907
an 0.065152 -1.471064 0.303116 1.011848 -0.125262 0.440702 1.017414 -1.154885 0.505008 0.989240 0.521766 0.937893 -0.919360 0.686274 1.310010 0.558575 0.514884 -1.149189 -0.098534 -0.554567 -0.566109 -0.544430 -0.922854 -0.926113 0.524035 -0.429375 0.536442 0.779039 0.383393 0.129765 -0.439174 0.112966 -0.239159 1.164137 -0.520328 -0.182494 0.404721 0.263272 -0.668156 0.028955 -0.059239 1.236943 -0.998398 -1.888229 0.265759 -0.691150 0.280962 -0.481646 0.438355 -0.706183
are 0.592780 -0.756948 -0.180317 1.431745 0.354750 0.162855 0.258559 0.843399 -0.718576 0.176001 0.471810 0.874425 -1.087429 1.054150 -0.063583 0.053690 -0.028821 -0.097624 -0.804640 0.336454 1.113222 0.636464 -1.017761 0.585303 -0.273186 -0.831067 -0.247511 0.523225 -0.691425 0.045326 -1.017190 -0.512376 -0.330145 0.433856 -1.874123 -1.671403 0.244931 1.430197 -0.251080 -0.358606 0.060653 -1.148386 -0.164048 -1.444769 -0.451687 0.036269 0.963760 -0.583059 1.013287 -0.291138
has -1.183526 -1.782613 0.213095 0.420363 -0.477405 0.454610 0.730985 -0.938641 -0.558701 1.175154 0.714848 -0.207722 -0.506712 -1.435182 -0.240443 0.033570 0.345008 0.325862 -0.638760 0.631708 0.167406 0.750426 0.306726 -0.807134 0.528377 -0.420266 0.421730 0.139700 -0.767999 0.365314 0.712535 0.461218 -0.569910 -0.071300 -0.992206 -1.426717 0.276629 0.694922 0.281417 -0.646933 0.310324 0.856353 -0.652918 -1.071279 0.765468 0.047531 0.163269 -1.248913 0.142243 1.148045
as 1.146074 -0.746740 0.377958 -0.363867 0.079506 1.475689 1.719316 0.202110 -0.540781 -0.216764 -1.147746 -0.043687 -1.167734 -0.238852 -0.384694 -0.604799 0.953217 -0.454508 -0.433447 0.593684 -0.591338 0.041730 -0.466062 -0.438069 -0.198970 -0.236842 -0.296524 2.009261 -1.041070 0.263940 -0.040314 1.008913 -0.845510 0.626989 -1.094027 -0.134867 0.150240 0.597361 -0.267469 -0.559241 0.201039 -0.295266 -1.083994 -1.745057 -0.339555 0.162541 0.871136 -0.945523 0.139989 -0.671043
have -0.699376 -0.966821 0.956219 0.975558 -0.560594 0.349695 -0.263789 -0.458156 -0.777277 0.737513 0.162697 -0.316151 -1.234909 -0.258251 -0.324361 0.194411 -0.258447 0.139843 -0.635143 0.857071 0.332535 0.532399 -1.466249 0.156794 0.438111 -0.408231 0.053810 0.064501 -0.707753 0.119426 -0.415893 0.226969 -0.622388 -0.185979 -1.033687 -1.950072 0.610849 1.051491 0.605951 -0.443599 -0.294714 0.077958 -0.041149 -1.666600 -0.954605 -0.606803 -0.146821 -0.334857 0.178675 0.903033
A -0.977196 -0.550218 0.286616 1.209654 0.445930 -0.176899 1.739530 -0.941147 0.037034 1.596515 -0.298100 0.395822 -0.746807 -0.619524 -0.722429 -0.073177 -0.427369 -0.730244 -0.317209 -0.603357 -0.824682 0.047919 -0.431623 -1.085255 0.224218 -0.295207 -0.442060 -1.336391 0.443494 0.591635 0.214736 -0.049135 -0.170905 -0.354147 -0.767115 -0.042101 0.248629 1.226625 0.042408 0.089745 0.101048 0.116175 0.319729 -0.745682 0.630683 1.021805 -1.174856 -1.149757 -0.743121 0.543814
it -1.097239 -0.576536 0.119910 0.592308 -0.094236 1.517561 1.290861 -0.048376 0.325033 0.690897 -0.255619 -1.438315 -0.524637 0.488929 -0.106066 -0.265077 1.201116 -0.094726 -0.040452 0.409632 -0.675813 0.128765 -0.727157 0.006067 1.294511 -0.600743 0.046134 0.750040 -1.196198 0.570960 -0.723449 0.192282 -0.889929 0.491180 -0.158797 -0.389475 0.095926 0.160234 -0.449742 0.585702 -0.481364 0.179542 -0.578529 -1.077423 -0.271935 0.537929 1.240039 -0.609978 0.032751 -0.381717
at -1.317300 -0.293407 -0.101929 0.303577 0.254825 0.717699 1.543697 -0.736189 -0.068592 -0.103965 0.456467 0.158722 -1.061889 0.732917 -0.422517 0.783895 -0.459697 -0.811465 0.688201 -0.872110 0.264299 0.804860 -0.530970 -0.714588 0.456217 -1.144464 -0.297475 0.301929 0.290542 0.355116 -0.517333 -0.255874 -0.558072 -0.111759 -0.060317 -0.997269 0.423363 -0.440236 -0.284052 -0.059267 0.202498 0.263677 -0.908593 -2.101754 -0.031526 0.324872 0.808248 0.315202 0.999294 0.510298
caused -0.263293 -1.575977 -0.427374 1.319627 -0.555371 0.021743 0.588878 0.344031 0.075486 0.812009 0.029196 0.787183 0.148335 -0.321085 -0.074156 0.990298 -0.470697 -0.597814 -0.714105 -0.097576 0.791963 -0.024576 0.573061 0.277632 0.496666 -1.064421 -1.207765 1.251522 -0.154593 -0.268335 -0.387571 0.017974 -0.814583 1.260331 -1.965134 -1.476464 -0.506637 0.743544 -0.531751 0.161139 0.061918 -0.029109 -1.291927 -0.366134 0.621576 -0.092829 -0.352845 -1.106592 0.153693 0.587663
his -0.456344 -0.557768 -1.286800 -0.224608 0.803289 0.755964 1.243578 0.440633 -0.957692 0.418361 -1.133198 0.226690 0.000499 -0.512828 0.221080 0.069475 0.304861 0.974721 -0.640486 -0.591417 -0.829883 0.401186 -0.966936 -1.157174 0.412224 -0.512180 0.478629 0.697516 0.185696 0.895664 -0.821865 -0.156167 -1.139174 -0.628146 -0.044357 -0.739226 0.233693 0.292123 0.601412 -0.506090 0.479669 1.047017 -1.400969 -1.194077 0.466928 0.057331 0.100633 0.055043 -0.715700 -0.589531
or 0.001051 -0.354400 -0.417451 1.361910 -0.617396 -0.328093 2.302333 0.141335 -0.944883 0.386467 -0.726688 -0.153521 0.102421 0.638818 -0.109292 0.055737 0.631389 0.005978 -0.695835 -0.588976 0.479940 0.076478 -0.085584 -0.006369 0.859824 -0.664105 -0.657345 0.775373 -0.017235 0.025525 -1.190934 0.156097 -0.097688 1.044105 -1.276090 -0.156096 -0.060777 0.985077 -0.142686 -0.955107 -0.399077 0.029607 -0.153762 -0.261663 0.164790 0.995789 0.744289 -0.081972 -0.706966 -0.295944
were -0.453822 -0.505371 0.046481 0.035923 -0.421296 1.242717 -0.033821 0.081455 -0.765063 0.168460 -0.118748 0.499923 0.227369 0.088067 -0.053314 0.152123 -0.716204 -0.009116 0.553084 0.176987 0.327290 0.708911 -1.199667 0.914802 0.738249 -1.035289 -0.628026 0.550074 -0.430631 0.615055 -0.860244 0.138784 -0.639289 -0.386827 -0.910229 -1.536070 -1.014239 0.544396 -0.712655 -0.739778 -0.401446 -0.077905 -1.135343 -1.528905 -0.818405 -0.397840 -0.569934 0.776461 -0.003413 0.079670
been -0.635369 -1.660361 0.769213 0.446058 -0.628979 0.800786 -0.066322 -0.769394 -0.477127 0.983720 0.581319 -0.167827 -0.659894 -0.950925 -0.265918 0.313500 0.077238 0.168991 -0.917178 0.742276 0.565777 0.694023 -0.132685 -0.163892 0.790397 -0.171764 -0.300403 0.533018 -0.987665 0.144848 0.402886 0.291198 -0.574184 0.269376 -0.477750 -2.023434 0.095315 0.460992 0.617549 -0.390997 -0.397937 0.347520 -0.716514 -1.357842 0.142520 -0.440805 0.021424 -0.956851 0.048965 1.456402
which -0.887398 -1.223555 -0.236685 0.799306 -0.343843 0.855098 0.931279 -0.094405 0.485229 0.733490 0.255491 -0.193367 0.813250 0.447061 0.859724 -0.080365 0.582386 0.522977 -0.516967 0.278855 0.242662 -0.027237 -0.162825 0.289110 0.599478 -0.685555 0.371048 0.445333 -0.859872 0.581368 -0.438120 -0.209307 -0.762953 0.047826 -0.880776 -0.499732 -0.222186 0.413723 -0.421856 0.212550 -0.281842 -0.746956 -1.256797 -1.095004 0.080384 -0.204837 0.749668 -0.433650 0.198494 -0.075050
this -0.191032 -0.808854 -0.108442 1.032258 1.304523 1.407414 0.008750 0.126017 0.385169 0.898676 0.614104 -0.031014 -0.710578 -0.029656 -0.275816 -0.639356 0.121447 -0.398462 -0.279031 -0.420424 0.793975 -0.091038 -1.067190 -1.812511 -0.130892 -0.877964 0.891365 0.068895 -0.487897 0.268471 0.509967 -0.159758 -0.179938 0.796456 -0.672466 -0.775592 -0.052048 0.572001 -0.384624 -0.769275 -0.529878 0.356865 -0.459775 -0.759593 -0.774975 0.178361 0.634815 0.298210 0.434823 -0.417530
I -0.930349 -0.208450 0.902129 0.698749 0.433059 1.134153 -0.214419 0.179601 -0.333374 0.817450 -0.698717 -1.408888 -0.855771 1.016189 -0.131394 -0.670413 -0.866574 -0.314914 -0.476656 -0.038755 -0.734034 0.022384 -1.733809 -0.430401 1.000769 0.021859 0.592707 -0.042518 -0.204634 0.561135 -1.050100 0.617516 -0.862955 -0.267283 0.094633 -0.754223 0.163897 -0.196407 -0.199826 0.839131 -0.720072 0.239843 -0.490638 -1.751988 -0.998455 -0.795393 0.175099 -0.304438 0.014609 -0.507179
This -0.309729 -0.656757 -0.691630 1.677530 0.031637 0.470925 0.205969 -0.072667 -0.628630 0.529671 0.549916 -0.430702 -0.290920 -1.299692 0.018727 -1.052950 0.610136 -0.923735 -0.135084 -0.650906 0.066835 -0.523010 0.131038 -2.124567 0.093306 -0.738730 1.622379 -0.821033 -0.872073 0.153015 0.262943 0.362551 -0.154037 0.311321 -0.506828 -0.829591 -0.390588 0.045119 -0.923575 -0.367856 0.789537 1.040316 -0.065874 -0.727568 1.250515 0.496943 0.218647 -1.364817 0.807808 -0.466790
their 0.067919 -0.510797 0.202077 -0.071001 0.269778 0.771544 1.272127 0.243335 -0.889785 0.915315 -0.767162 0.351925 -0.205542 -0.353499 -0.512631 -0.109115 0.589573 0.814925 0.201420 0.053449 -0.415798 -0.215488 -1.360973 0.297580 0.805324 -1.010358 0.619851 0.959410 0.046126 1.119381 -0.535887 -1.190755 0.014654 0.146116 -0.700424 -0.684989 0.504035 0.615517 0.271766 -0.960530 0.206466 0.505631 -0.543084 -1.029592 -0.362118 -0.110454 0.562109 1.030374 0.111175 0.281274
In -0.236678 -1.027356 -0.061047 1.336212 1.643206 -0.370487 -0.258171 0.781274 -0.532365 -0.098350 -0.048447 1.047434 -0.576996 -0.755628 -0.333039 -1.694585 -0.441900 -0.401707 -0.630733 -0.513406 0.825810 -0.084116 -0.600602 -1.477216 0.389187 -0.641493 0.610513 -0.403041 -1.074864 0.595838 -0.007559 0.504002 -0.297696 1.279996 -0.084098 -0.906556 0.174937 0.004594 -0.022835 0.114571 -0.296776 -0.021746 -1.376854 -0.693556 -0.004442 0.033760 -0.242419 -0.315874 0.046558 -1.000193
had -0.971472 -1.605133 0.922771 0.278141 -0.215939 0.757944 0.424494 -0.150098 -0.352641 0.928323 -0.440797 -0.359832 -0.318786 -0.941310 -0.478156 0.423183 -0.417034 0.347311 -1.080717 0.513192 -0.241056 0.135422 -0.575736 -0.370063 0.414798 -0.363073 -0.680955 0.824003 -1.065769 1.037381 -0.067113 1.201750 -0.690786 -0.120840 0.228621 -0.757978 -0.177010 0.378519 0.520811 0.228652 -0.703868 0.386474 -1.139491 -1.302674 -0.150696 0.141360 -0.273386 -0.470010 -0.643046 0.526776
one -1.011487 -0.167464 -0.177405 0.768953 0.134534 1.032212 1.196286 -0.130187 -0.328464 0.097764 -0.509824 -0.127725 0.074997 0.358254 -0.998857 0.137669 -0.083796 0.102455 -0.276362 -0.942347 0.428684 0.219263 0.306852 -1.233378 0.873522 -0.944314 0.573766 -0.014498 -1.142829 0.546166 -0.551246 -0.155456 0.136993 0.339082 -0.679684 -0.328444 -0.241402 0.069665 -0.271554 0.233116 0.285522 -0.789323 -0.642721 -1.429223 -0.348266 0.302583 1.007586 -0.291129 0.115326 0.444543
who -0.802907 -1.205003 0.476570 0.007695 0.354386 0.699441 0.893607 0.254776 -0.281062 1.348511 -0.058258 0.256909 -0.225484 -0.053054 0.364408 0.598736 1.123123 -0.327832 0.274981 0.454260 -0.895235 -0.052309 -1.514000 0.213460 0.019064 -0.634257 -0.793666 -0.049655 -0.253242 0.346573 -0.402462 -0.412707 0.154152 -0.024478 -1.292928 -0.354019 -0.237099 1.373111 0.484545 0.421090 -0.354517 0.610593 -0.263831 -1.193256 0.286527 0.306711 -0.073090 -1.153886 0.244468 0.797780
out -0.899337 -0.776626 0.316483 0.734902 -0.199915 1.204896 0.372469 0.234133 -0.715128 0.876927 0.404559 0.214248 0.679026 -0.076001 0.674262 0.058583 0.501110 0.918751 0.465203 0.332522 -0.577593 -0.491435 -0.755578 -0.023053 0.672261 -0.775544 0.304469 -0.215928 -0.467117 0.347549 -1.073684 0.313597 -1.027283 0.303611 -0.655820 0.002562 0.492610 0.342971 -0.001074 -0.332249 -0.229155 0.153883 -0.053129 -1.456563 -0.726166 -0.225218 0.383829 -0.301018 -0.394399 0.443684
made -0.421891 -0.541935 -0.305666 0.662870 0.867907 0.900794 0.686334 0.268163 0.299015 1.172926 -0.236656 0.287647 -0.293896 0.570297 -0.207582 0.298876 0.633454 0.393915 0.039773 -0.353664 -0.405465 -0.272755 -0.330352 -0.456239 0.222526 -0.000685 0.809532 0.213211 -0.369442 0.645727 -0.311177 0.278084 -0.549635 0.632167 -0.894794 -0.724294 -0.756536 1.414274 -0.419185 -0.187870 -0.080401 0.223014 -0.501861 -0.464326 -0.013688 -0.478310 -0.120763 -0.138605 0.475343 0.038027
its -0.832838 -0.282366 -0.293777 -0.120856 0.498602 0.664473 1.390797 -0.010793 -0.189946 0.288414 -0.142738 -0.358803 0.448386 -0.732607 -0.058476 0.573726 0.386296 0.544972 -0.205415 -0.549542 0.255093 0.104370 0.274543 -0.591058 0.239928 -1.237950 0.391127 1.233844 -0.053006 1.058947 0.085083 -0.189268 0.113236 0.320151 -0.277787 -0.354428 0.103809 0.854283 -0.015940 -0.766134 0.498550 0.935838 -0.938607 -0.138137 0.104226 0.868939 1.181005 0.583600 0.493937 -0.492703
up -0.236443 -0.502209 0.239746 0.854646 1.151211 2.151982 -0.211418 0.136918 0.347964 1.113046 0.529235 -0.177546 0.372420 0.267931 0.326428 -0.363141 0.470669 0.671842 -0.283087 0.324871 -0.420884 -0.091930 -0.267789 0.228153 1.095230 0.002632 -0.551709 -0.212337 -0.192369 0.871585 -0.685168 -0.525896 -0.524535 0.159504 0.503199 -0.550937 0.010268 0.731067 -0.253110 -0.345520 -0.706885 0.155086 -0.289615 -1.924155 0.043403 -0.402093 0.393899 -1.275544 0.306403 0.494823
inside -0.117178 -0.406309 -0.665596 0.919740 -1.065972 1.059226 0.071051 -1.666653 0.982456 0.850072 -0.113725 -0.447742 0.261322 0.637215 1.158986 -0.600449 -0.597024 -0.431844 0.136731 -0.194535 0.357553 0.339628 -0.764687 -0.054960 0.293483 -0.493499 -0.044371 0.515092 -0.104564 1.349517 -0.192073 0.092183 -1.196245 -1.045745 0.188188 -0.617280 -0.265988 0.392655 -1.317605 -0.171687 -0.088824 -1.005486 -0.450837 -0.656762 -0.152246 -0.113124 0.141929 -0.141958 -0.653404 0.299532
other 0.010195 -0.163877 -0.044905 0.086561 0.919956 -0.240200 1.214969 0.127802 -1.406471 -0.181688 -0.806381 0.362900 -0.321831 -0.037357 -1.169174 -0.713846 0.353271 0.103539 -0.180132 -0.065664 -0.059292 -0.517261 -0.260346 0.314063 0.033288 -0.961424 0.271123 0.180178 -1.504889 0.236665 -1.075000 -0.288263 0.260547 0.280964 -1.323726 -0.795135 -0.221887 0.873829 0.046730 -0.157026 0.531881 -0.813307 -0.844302 -0.521182 -0.035303 -0.128434 -0.042310 0.421733 -0.890926 -0.886052
about 0.275188 -0.491481 0.301425 0.269702 0.601900 1.273703 0.352326 -0.608632 0.030829 0.161378 0.326577 -0.294267 -0.069677 -0.241074 0.454418 -0.233924 0.490111 -0.249444 -0.567299 -0.410332 0.650169 -0.455828 -0.175723 -0.646063 0.035202 -0.155981 -0.014544 -0.330121 -1.341790 0.380569 -0.661964 -0.030515 0.334189 0.069717 -0.160045 -0.952360 -1.075375 0.339400 -0.647428 -0.181364 -0.633742 0.693476 -0.326653 -1.085967 0.408862 -0.879910 0.582956 -0.394689 0.754071 -0.269095
her -0.429489 -0.813117 -0.226392 0.240881 0.705933 0.356674 1.794153 -0.561152 0.036763 0.284203 -1.047801 -0.657081 0.578700 -0.944601 1.080136 0.022561 -0.535911 0.227037 -0.946838 -0.436773 -0.479431 -0.475098 -0.938230 -0.316905 -0.015335 -0.215010 -0.503427 0.794603 -0.174815 1.256144 -0.488848 -0.197231 0.059838 -0.122842 0.733420 -0.106672 0.186147 0.222107 0.754197 -0.023066 -0.198634 1.452983 -0.575240 -0.763521 0.742826 0.580612 -0.217559 -0.743654 -1.465230 -0.462259
after -0.409138 -0.781237 -0.586095 0.273166 1.056636 0.951000 -0.298149 -0.075205 0.360508 0.653770 -0.010154 0.724815 -0.318620 -0.039909 -0.372813 0.478156 -0.005696 0.013162 -0.275126 0.102064 -0.169226 0.510001 0.369455 -0.711762 1.281650 -0.853528 -0.887256 0.346939 -0.678787 1.163350 -1.089983 0.662207 -0.279382 0.671768 0.485855 -0.350703 -0.004689 0.894286 -0.582800 0.149248 -0.318816 0.864089 -0.977240 -0.269394 -0.265985 -0.000953 0.322922 -0.272884 -0.550838 -0.085597
he -0.550435 -0.964332 -0.643230 0.312694 0.516881 1.684672 0.013626 0.126934 -0.166719 0.386147 -0.277145 -0.240035 -0.112927 0.001086 0.685614 -0.298437 0.739244 0.417288 -0.530111 0.853086 -1.371488 0.479317 -1.095597 -0.550123 0.401728 -0.102997 0.450704 0.490619 -1.248751 0.418398 -0.474465 0.207085 -1.234728 0.471238 0.581742 -0.170593 -0.310132 0.273488 0.209151 0.177588 -0.089271 0.149184 -0.722011 -0.636548 -0.281508 -0.122595 0.156651 -0.630297 -0.519305 -0.723077
be -0.781489 -0.558444 -0.835718 1.191798 -0.585567 1.005484 0.968235 0.009679 -0.143029 0.473690 -0.211804 -0.697192 0.406751 0.574144 0.254037 -0.364114 0.647212 0.361746 -1.218141 1.093336 -0.267869 1.701763 -0.247108 0.438259 0.640724 -0.484594 0.033880 0.277215 -1.019729 -0.133170 -0.467391 -0.547521 -0.572280 1.206855 -0.554933 0.003473 -0.317895 0.342189 0.184937 -0.383973 -0.167115 -0.619480 -0.313686 -0.443690 -0.569713 0.188842 0.578765 -0.138397 0.088281 -0.608474
all -0.547428 -0.415042 -0.127868 0.070117 0.761064 0.750114 0.079041 0.731983 -0.297041 0.296612 -0.083974 -0.329190 -0.316408 0.546390 -0.332127 0.173013 0.450749 0.561016 -0.186738 -0.099260 0.111797 0.500875 -0.716592 -0.153002 0.713643 -0.677882 0.230485 0.122724 0.026972 0.441450 -0.780905 -0.450553 -0.270354 -0.016026 -0.567713 -0.722785 0.304477 0.241213 0.294553 -0.494798 -0.235360 0.357903 -0.738252 -1.036045 -0.461088 -0.283006 0.937905 0.331296 0.448328 -0.330903
but -1.314344 -0.449307 0.003197 0.444765 0.098634 0.064194 1.557835 -0.242045 -0.350446 -0.126620 -0.560557 -0.820168 -0.240859 1.119563 -0.042126 -0.152721 0.139440 0.398756 -0.331282 0.351449 0.017055 0.662050 -0.436183 0.255873 -0.069482 -0.378795 0.439953 1.456769 -0.652466 0.717294 -0.449899 0.847361 -0.463823 -0.313919 -1.323696 -0.805938 -0.364587 0.610789 0.215353 0.544838 -0.669046 0.307627 -0.400664 -0.154360 -0.593441 -0.396349 0.600861 -0.084798 0.441237 -0.500396
my -0.524990 -0.382484 -0.057651 0.901785 0.444179 -0.012084 0.161576 -0.856537 0.172682 0.416748 -0.648148 -0.248919 -0.680094 0.552541 0.110378 0.466892 -1.150802 -0.322015 -1.262610 -0.760698 0.309889 -0.702387 -0.849115 -1.278204 0.393088 -0.196475 0.344516 0.381134 0.330115 0.580821 -1.075569 -0.033637 -0.595257 -0.759288 0.571662 -0.429204 0.844018 0.075979 0.575418 0.061624 -0.257300 0.171626 -0.927201 -1.427764 -0.263940 -0.689488 -0.092088 0.428195 -0.740708 -0.137879
first -0.653938 -0.601636 -0.103645 0.165689 0.578281 0.793091 0.374226 -0.099974 0.058812 0.830625 0.028458 -0.127998 -0.551626 -0.314253 -0.644276 -0.312907 -0.579958 -0.372446 0.222534 -0.173150 -0.375606 0.118821 -0.404597 -0.178747 0.531405 -1.039072 0.521627 0.412379 0.065957 0.815568 0.513060 0.629685 -0.518533 0.364973 -0.457539 -0.119191 -0.151610 -0.203100 -0.828978 0.021552 -0.082391 0.884665 -0.902570 -0.663548 -0.211477 -0.013947 -0.161233 0.180428 0.618344 -0.027969
over -0.642401 -0.465237 0.394057 -0.292661 0.548316 0.474819 0.208905 -0.462658 0.237734 -0.039917 -0.353613 -0.781018 -0.605166 -0.062907 -1.059317 0.201770 0.752843 -0.229226 -0.443394 -0.295294 -0.042317 1.107923 0.701036 -0.396845 0.813242 -0.484042 -0.521067 0.210558 -0.114272 0.726542 -0.229393 0.169984 -0.103189 -0.477509 -0.191129 -0.885784 0.304895 0.268355 -0.067940 -0.114739 -0.514779 0.321694 -0.697566 -1.256349 0.238172 0.500150 0.456894 -0.637154 0.163373 -0.272255
they -0.920141 -0.819822 0.428596 0.826295 -0.543368 0.593754 0.468129 0.483156 -0.657662 0.517537 -0.230300 0.120113 -0.278784 0.453917 0.144078 0.230212 -0.040051 0.412767 -0.599294 1.063868 -0.004161 0.178790 -1.304443 0.201940 0.166871 -0.963299 0.347526 1.006717 -0.831466 0.550507 -0.967209 0.244500 -0.546331 -0.024313 -0.293093 -0.150832 0.176294 0.342048 0.310314 0.120325 -0.952293 -0.430172 -0.619040 -0.751427 -1.210809 0.017888 0.312944 0.594629 0.480650 -0.451065
two -0.711346 -0.171144 -0.138409 0.360552 0.813014 0.257203 0.709258 -0.081953 -1.066191 0.274550 0.368893 0.567669 0.313250 0.420744 0.040804 -0.522199 -0.241868 0.689432 -0.298083 -0.238502 0.602005 0.631530 0.428588 0.378089 0.714419 -0.377343 -0.370388 -0.056252 -0.849915 1.353548 -0.966964 0.719935 -0.054008 -0.056249 -0.824592 -1.062351 -1.016368 0.676854 -0.361194 -0.071547 -0.576612 0.524404 -0.548669 -0.804902 0.039450 -0.366608 0.257465 0.152351 0.014007 0.224846
It -1.051358 -0.492223 0.122737 0.606965 -0.295614 0.355585 0.919679 -0.487398 0.191243 0.871643 -0.113642 -0.803250 -0.251519 0.023928 0.256791 -0.115712 0.099128 -0.993337 -0.575546 0.090757 -1.197180 0.331173 -0.162339 -0.585890 0.230801 -0.210591 1.007008 -0.280255 -0.357003 -0.438866 0.399152 0.255746 0.054000 0.525544 -0.997075 0.214739 -0.385195 0.246368 -0.676451 0.665441 0.224767 0.417393 -0.277863 -0.812028 0.034447 0.241005 -0.045708 -1.421448 0.574645 -0.756414
also -0.434299 -0.476640 0.216697 0.365105 -0.734470 0.262188 0.441411 -0.120610 -1.009677 0.437135 0.001676 -0.796336 -0.500568 0.592985 0.606874 -0.564243 -0.443871 -0.192505 -1.148615 0.123732 -0.248127 0.668457 -0.893197 0.237184 -0.322724 -0.255291 1.368099 0.909658 -0.341054 0.316543 0.288263 0.575501 -0.536465 -0.339325 -1.061784 -0.534225 -0.437609 0.213501 -0.018856 0.603607 0.546090 -0.058637 -0.392054 -1.182856 -0.329216 -0.068722 0.439743 -0.614901 1.176143 -0.727549
He -1.062966 -0.716205 -0.025014 0.063879 -0.626514 0.457810 -0.091489 -0.223820 -1.016899 1.230334 -0.047482 -0.594258 -0.038936 -0.172149 0.413876 -0.436910 0.170236 0.433506 -0.685452 0.596719 -1.556387 1.035210 -0.792040 -0.008590 0.897843 -0.171244 0.887896 -0.123073 -0.057527 0.356087 -0.409017 0.193188 -1.104102 -0.470996 -0.005228 -0.559326 0.137167 0.052920 0.157571 0.627883 0.789162 0.739384 -0.333298 -1.250760 0.258105 0.185822 -0.392512 -1.236062 -0.129878 0.009805
through 0.067765 -0.184740 0.060673 0.455871 -0.237935 1.076476 0.058594 0.087570 -0.046983 0.357566 0.549465 0.539217 0.252889 0.288192 0.411227 0.061420 0.640768 -0.411002 0.564293 -0.018067 -0.419049 -0.598848 0.117418 0.102641 0.665651 -0.994485 -0.223305 0.651751 0.366861 0.338752 -0.997737 -0.033331 -0.987903 0.449951 -0.164643 0.691268 0.559829 -0.013664 -0.594153 -0.208167 -0.070418 -0.036998 -0.477952 -1.244394 -0.127468 0.272607 0.757397 -0.102460 0.468640 -0.207189
new 0.399529 -0.215488 -0.137253 0.829247 0.890640 0.860185 0.157944 -0.480997 -0.049650 0.679360 0.005316 0.250774 -0.997445 -0.315821 -0.360334 -0.446570 0.095244 -0.490193 -0.347903 0.355714 0.185715 -0.437978 -0.805341 -0.542013 -0.684550 -0.598692 0.238284 0.024014 -0.027818 0.231745 0.683988 -0.607646 -0.255773 -0.470952 -0.759654 -0.619381 0.719504 1.061780 0.025126 -1.737060 0.126405 0.008728 0.135221 -0.837030 -0.016520 0.019584 -0.113301 0.063472 -0.079006 0.528410
when -0.647884 -0.326004 -0.335733 0.637292 0.338617 0.468493 0.577646 0.717106 -0.586217 0.399575 -0.656562 -0.150732 -0.408190 0.895838 -0.105355 -0.394577 -0.076870 -0.241737 0.068447 -0.028836 -0.440720 0.016903 -1.036684 -0.579383 0.566418 -0.920871 -0.610259 0.660694 -0.303744 0.614530 -1.398763 0.573243 -0.817811 0.543698 -0.119161 -0.103520 0.178841 0.160066 -0.286443 0.587765 -0.509822 0.113608 -0.591596 -0.259392 -0.752944 0.379956 0.352570 -0.152033 -0.846817 -0.844637
some 0.176787 -0.399199 0.585695 0.236958 0.275251 -0.442315 0.411674 -0.022483 -1.040571 0.866298 -0.330629 -0.078463 -0.213447 0.052328 0.226203 -0.286627 -0.374915 -0.442656 -0.926209 0.332258 -0.116341 -0.269367 -0.886793 0.374965 0.116172 -0.052202 0.573963 0.135070 -0.469135 0.095578 -0.734768 -0.221572 0.317452 0.238785 -0.667089 -0.632485 -0.019247 0.003878 -0.433448 0.153598 0.169895 0.413901 -0.501387 -1.310685 0.294085 -0.624168 -0.204313 0.091329 0.103657 -0.284277
more 0.163669 -0.476519 0.414967 0.945434 -0.263519 0.139381 1.235683 -0.514473 -0.327536 0.398097 -0.771739 -0.670332 -0.656799 0.437602 -0.959992 -0.311576 0.833500 -0.087594 -0.027977 0.182144 -0.337524 -0.153247 -0.248374 0.201457 1.107389 0.020538 0.334801 -0.402007 -1.324351 -0.175416 -1.158685 0.016291 0.493267 0.939710 -0.828391 -0.814564 -0.633234 0.509841 -0.385136 0.308002 -0.177801 0.191414 0.658953 -0.283354 -0.059295 -0.604208 -0.302259 -0.357389 -0.392393 -0.005858
not -0.993423 -0.804711 0.348887 0.086062 -0.794966 0.514126 1.397047 0.896168 -0.190904 0.241207 -0.146151 -1.320317 -0.465631 1.044059 0.025833 0.080960 0.672953 0.045036 -0.029899 -0.098693 0.111712 0.751270 -0.743904 0.242843 0.397301 -0.231983 0.484749 1.046260 -0.518467 0.112486 0.052923 0.590267 -0.142879 0.422416 -1.107668 -0.790368 -0.390578 -0.107735 -0.027351 0.449455 -1.103875 0.117172 -0.730635 -0.281829 -0.562868 0.227211 0.990892 -0.047437 0.813530 0.080811
people -0.031040 -0.561369 0.533606 -0.155535 0.360511 0.246318 0.990391 0.325697 -0.678999 0.564864 -0.436171 0.059682 -0.614606 -0.249311 -0.464769 -0.486356 0.457638 0.080809 1.077678 0.512054 -0.320644 0.023262 -1.484259 0.658241 0.488435 -0.670399 -0.377492 -0.321984 -0.591085 0.350986 -0.328635 -0.432769 0.173218 0.164896 -1.384712 -0.748926 0.283898 0.726958 0.193066 -0.062230 0.045982 0.046348 -0.232838 -0.922329 -0.264077 0.071337 -0.199270 -0.177797 -0.144662 0.457632
water 0.397317 -0.158525 -0.340733 0.442660 -0.214312 0.368014 1.368475 0.587577 -0.083520 0.426038 -0.554658 -0.781695 -0.501024 0.478392 0.149035 0.046113 0.802648 0.306088 0.558534 -0.774407 -0.563888 0.176837 -0.136234 0.603505 0.616939 0.288483 -0.034752 0.797945 0.596811 0.418562 -0.152403 0.097136 -1.232790 -0.318213 -0.535708 -1.412014 0.446831 0.580676 -0.173201 -0.133432 0.116331 0.796111 0.499000 -0.441980 0.532391 0.457664 0.606927 -1.154877 -0.287317 0.343444
used 0.164286 -0.909570 -0.458670 0.457382 -0.120345 -0.262658 0.628301 -0.335202 -0.429403 0.793586 -0.333504 0.052965 -0.880416 0.658136 -0.068107 -0.030438 0.614913 -0.090239 -1.515394 0.337209 -0.363931 1.263387 -0.773895 0.011021 0.248474 -0.128756 0.050994 0.917047 -0.106298 0.385369 -0.331162 0.315856 -0.259453 1.027185 -0.492213 -0.517237 0.041177 0.840645 -0.007340 -0.469016 0.347065 0.212619 -0.421687 -0.600186 -0.022322 0.489549 0.325141 -0.129828 -0.168902 -0.648200
years -0.291085 -0.712434 0.770311 0.108209 0.972221 -0.235173 0.435605 -1.115118 -0.681954 0.106477 -0.050770 0.247641 -1.107925 0.104946 -0.694882 -1.058457 0.425292 -0.307367 -0.491901 -0.266186 0.639749 0.957568 -0.123714 -1.106574 0.948768 0.115818 -0.735221 -0.594994 -0.890782 0.607952 -0.763143 0.683593 0.381165 0.702598 -0.249422 -1.119213 -0.365081 0.449545 -0.093906 -0.245743 -1.139141 1.354266 -0.390123 -0.735110 -0.391097 -0.814152 -0.556105 0.007109 -0.465788 -0.234885
book 0.118843 -0.927167 -0.458830 0.905555 0.046881 0.675745 -0.070349 0.767774 -0.217116 1.094344 0.021030 0.167320 -0.393516 -0.157319 0.028266 0.172384 0.000051 -0.623738 -0.461289 -0.689719 0.178619 -0.743573 -0.089722 -1.108545 0.329021 -0.336912 0.497229 0.259836 -0.089376 -0.190758 -0.043226 0.095488 -0.599958 0.861823 -1.109855 -0.607701 -0.429346 0.247306 -0.665321 -0.216179 -0.016619 0.820086 -0.615545 -0.607081 0.627531 -0.143142 0.000046 -0.723563 0.067622 0.194062
put -0.077729 -0.222806 -0.503768 0.734314 -0.403751 0.810309 -0.134515 -0.783844 0.038400 1.593746 0.080286 -0.561189 -0.059920 0.346583 0.932963 -0.668158 0.026738 0.483928 -0.257567 0.480129 -0.270330 0.051830 -1.440990 0.076707 0.783705 -0.148495 0.463314 0.249784 -0.275075 1.154984 -0.377262 -0.465703 -0.681167 -0.846559 0.235289 -0.773511 0.089350 0.461620 -0.328960 0.233302 0.047541 0.174422 -0.251909 -0.792994 0.265155 -0.204460 0.063852 -0.305792 -0.474526 0.655249
time -1.124448 -0.360479 -0.172893 0.024523 0.737458 0.901139 0.868041 0.513442 -0.632268 0.335673 -0.501571 -0.595959 -0.713573 -0.186239 -1.272639 -0.283722 -0.208885 -0.511178 -0.188759 -0.153428 -0.101925 1.118041 -0.113096 -1.323098 0.528138 -0.361995 0.008745 0.334468 -0.414633 0.191756 -0.155213 0.049082 -0.242914 0.670213 -0.508936 -0.548672 -0.426314 -0.448776 -0.133490 -0.160697 -0.420855 0.486179 -0.683416 -1.174596 -0.040732 0.229718 0.394784 0.084798 0.145768 0.054166
We 0.512987 -0.225769 0.120720 0.766307 -0.373016 0.679506 -1.329981 0.885698 -0.651309 1.271765 0.004725 0.175341 -0.712173 0.488044 -0.287084 -0.489051 -0.517105 0.121866 -0.107644 0.486776 -0.549688 0.562292 -1.668794 0.114747 0.705638 -0.350347 0.730443 -0.212174 0.126027 0.639886 -0.449823 -0.152658 -0.855904 -0.130018 0.093704 -0.632807 0.498100 0.268386 -0.093137 0.326322 0.332513 -0.908397 0.285693 -1.231645 -1.017534 -0.020741 0.057399 -0.363769 0.348687 0.103712
than 0.546689 -0.245412 0.474205 0.523676 -0.442756 0.001087 1.969106 -0.737707 -0.490351 0.244204 -1.019104 0.002025 -0.880293 0.548190 -0.869951 -0.646447 1.226600 -0.083634 0.811424 0.218469 -0.725809 -0.045505 -0.427171 0.128291 0.884135 0.113358 -0.139653 -0.352889 -1.473639 -0.221078 -1.334585 0.061716 0.067093 1.392710 -0.853924 -0.543483 -0.521398 0.148406 -0.388845 0.531990 -0.397366 -0.262792 0.563610 -0.267794 -0.154137 -0.700956 -0.410465 0.132095 -1.023508 0.101726
we -0.230807 -0.260536 0.494298 0.855093 0.104624 0.965809 -0.570419 0.795788 -0.538385 0.241151 0.447894 -0.588957 -0.866166 0.076933 -1.116971 -0.604289 -0.285179 -0.421058 -0.010372 0.618883 0.364098 -0.215274 -1.258776 -0.486629 0.911794 -0.952338 0.406673 0.154722 -1.057129 -0.378129 -0.444651 0.348600 -0.636229 0.486844 0.140711 -0.346216 0.034675 -0.452597 -0.028742 0.281693 -0.558629 -0.814394 -0.348670 -1.360807 -0.779255 0.319006 0.685315 0.032722 0.066928 -0.047848
using 0.461723 -0.452820 -0.038552 0.332275 0.086488 0.901109 0.844561 0.159601 0.464814 0.449938 -0.153949 0.678822 0.262817 0.066943 -0.397725 0.868778 0.605689 -0.923029 -0.018803 -0.142395 -0.411435 -0.836422 0.573901 -0.310754 -0.219865 -0.528692 -0.565746 1.008366 0.499537 -0.341981 0.034017 0.217725 -0.389105 0.541285 -0.667850 0.171975 -0.573960 0.470352 -1.081369 -0.824691 -0.362187 -0.035165 -0.867978 -0.811515 0.529570 0.198137 -0.898256 0.289861 0.235955 0.342721
so -0.562993 0.187655 -0.123958 0.946440 -0.017226 1.014453 0.799195 0.147998 -0.410024 0.356843 -0.550178 -1.336774 -0.417843 0.575884 -0.317857 -0.383722 0.311538 -0.303811 -0.445384 0.808895 -0.048483 -0.791122 -0.545676 -0.347740 0.048771 -0.550055 0.776343 1.149596 -0.916682 -0.355535 -0.855161 0.456527 -0.514127 0.206541 -0.683135 -0.250842 -0.179591 0.266269 -0.260672 0.007796 -0.747850 0.080228 -0.038863 -0.333834 -0.451644 -0.331872 0.387014 0.210249 -0.034138 -0.401399
them -0.315147 -0.409191 0.484265 0.773818 0.430499 0.631088 0.209919 0.121443 -0.215301 0.407991 -0.321564 -0.004027 0.575410 0.371922 0.362879 0.103278 0.573224 -0.144784 -0.540425 0.449545 -0.814628 -0.458346 -0.555055 0.776374 0.586583 -0.435106 -0.909021 -0.372750 -0.410110 -0.121779 -1.396456 -0.600758 -0.250311 -0.065991 -0.072037 0.091734 0.197385 0.292327 -0.177938 -0.007542 -0.553599 -0.411184 -0.538486 -1.728449 -0.285348 -0.214513 -0.334701 -0.408981 -0.362686 -0.305626
most 0.043642 -0.661005 -0.422625 0.872296 -0.073097 -0.473757 0.857301 -0.011076 -0.294915 0.046708 -0.414262 0.294611 -0.648976 0.543063 -0.352292 -1.175480 -0.254288 -0.071604 -0.295155 -0.571847 0.468885 0.174690 -0.341641 -0.290382 0.886359 -0.024866 1.064743 -0.644304 -0.347357 -0.232554 -0.103672 -0.797073 0.003088 0.533408 -1.657814 -0.679676 0.561342 -0.259790 0.043509 -0.021577 0.375364 -0.435752 -0.323966 -0.228485 -0.292737 -0.907620 -0.047544 -0.601525 -0.349724 -0.162739
company 0.171527 -0.737949 -0.302690 0.592157 0.138014 0.451988 -0.042063 -0.955628 -0.092126 0.365496 0.043246 0.058416 -0.458584 -0.698867 -0.471960 0.108690 0.288775 0.020927 -0.657091 0.656705 -0.224267 -0.056700 0.533279 -0.263636 -0.173123 -0.530151 0.519275 0.661921 -0.341316 0.150465 0.209592 0.145844 -0.796598 -0.008424 -0.482014 -0.729397 0.139698 0.548902 -0.203781 -0.789009 0.303770 0.579684 -0.154800 -0.257227 0.432254 -0.153080 -0.069809 -0.253966 0.510689 -0.167065
many 0.310541 -0.552450 0.108661 -0.080900 1.314137 0.955425 0.113881 0.694294 -0.357820 -0.355194 -0.225965 0.279981 0.054227 -0.212898 -0.430787 -0.596988 0.864470 0.606251 -0.182048 0.389084 0.449554 0.285623 0.116146 0.167711 0.258022 0.226973 -0.454848 -0.154877 -1.615534 -0.115768 -0.427047 -0.003430 0.226327 0.461794 -1.169993 -1.310701 -0.486828 1.048502 0.071149 -0.474850 -0.155824 -0.241972 -0.991830 -0.851738 -0.250219 -0.892260 0.216675 -0.617324 -0.207873 0.271112
small -0.166249 -0.117724 -0.216750 0.592808 0.343928 0.744702 1.268760 -0.274355 0.459825 -0.168362 0.083941 0.454005 -0.269832 0.397750 0.455711 -0.805112 0.318558 -0.267786 0.789032 -0.541719 0.045009 0.054666 -0.391231 -0.788657 -0.250381 0.077163 -0.200967 -0.259858 0.349314 0.305121 -0.105806 0.531175 -1.147081 -0.552268 -0.850290 0.100593 0.462459 0.684070 -0.424141 -0.555612 -0.174119 -0.853688 0.132495 -0.674796 -0.423778 0.266582 0.226524 -0.782013 -0.683193 -0.102460
only -0.376212 -0.259327 0.097580 0.075497 -0.484861 0.167639 0.997034 -0.212607 -0.377229 -0.115250 0.027969 -0.561358 -0.145434 0.720054 -0.277660 -0.175499 0.035760 -0.058244 -0.143268 -0.392728 0.116782 1.302528 -0.089912 -0.021685 0.578081 -0.487761 0.303969 0.650557 -0.271927 0.408786 0.009075 0.822992 0.107686 0.056751 -1.008981 -0.453311 -0.778624 0.256601 -0.533000 0.479808 -0.268628 -0.451885 -0.872169 -0.601384 -0.648678 0.205784 0.532824 0.180630 0.928846 -0.388223
found -1.189746 -0.669706 -0.088628 1.145575 -0.461419 0.125030 0.618347 -0.217524 -0.109067 1.260711 0.017196 -0.107071 -0.168991 0.165230 0.486396 -0.732119 -1.113656 -0.081952 0.117245 0.432727 -0.122481 -0.218499 -1.383292 0.509079 0.772781 -0.511139 0.009607 0.036793 -0.568326 0.473572 -0.017097 0.036004 -0.565894 0.176848 -0.509705 -0.475400 0.112270 0.180437 -0.236535 0.458723 -0.530526 -0.662685 -0.518947 -0.110619 -0.425701 -0.120679 -0.522530 0.036425 -0.711672 0.367996
part 0.193060 -0.254155 0.306233 0.289870 -0.301950 0.449289 1.230908 -0.281945 0.490470 0.209822 -0.562521 0.450915 -0.516673 -0.413564 0.313593 -0.178233 -0.391706 -0.267921 0.366758 -0.194050 -0.005630 0.126446 -0.595725 -0.601843 0.266869 -0.263322 0.379199 0.458527 0.107163 0.908030 0.498933 -0.300325 0.019239 0.201720 -0.656967 0.297084 0.952838 0.361718 -0.231168 0.530923 1.383427 -0.219117 0.012774 -0.973472 -0.527250 0.132725 0.869735 -1.120196 0.571080 -0.339350
like -0.352750 0.224053 -0.146588 1.001697 0.140933 0.321834 1.355194 0.420300 -0.452681 0.759762 -0.296284 -0.702408 0.106699 0.936539 0.065145 -0.388600 0.793644 -0.036135 -0.254597 0.347372 0.001196 -0.635817 -0.592492 -0.148383 0.194290 -0.089793 0.211302 -0.036317 -0.532635 -0.296168 -1.056790 -0.701075 0.145853 0.124475 -1.011126 -0.150255 -0.157861 0.226592 -0.131724 0.661569 -0.253143 0.284884 0.575125 -0.083496 0.181804 -0.165657 0.539815 -0.626334 -0.211296 0.058952
such 1.378269 -0.340277 0.939531 -0.462675 -0.508461 0.416624 1.142182 0.165295 -0.468111 -0.466455 -0.944057 0.321906 -0.502128 0.069861 0.203502 -0.056232 0.466909 -0.147442 -0.526403 0.087066 0.020973 -0.189424 -0.285186 0.398475 -0.330430 -0.014926 -0.182670 1.457426 -0.289108 0.317306 0.291111 0.649184 0.159391 0.389515 -0.984960 0.013267 -0.024295 0.917370 0.010241 -0.878902 0.018649 -0.564912 -0.952805 -1.040003 -0.451256 0.132434 0.698309 0.052891 0.058243 -0.704641
you 0.202159 0.125386 0.479588 1.180080 -0.211458 1.091205 -0.189004 0.511677 -0.752402 0.150575 0.161194 -1.072172 -0.569084 0.376776 -0.694430 -0.313577 0.311036 -0.343332 -0.912421 0.455491 -0.153858 0.065853 -0.666285 0.197343 0.517690 -0.685583 0.051303 -0.188222 -0.990915 0.159303 -0.548393 0.259264 0.207076 0.066676 0.175921 0.484103 -0.480186 0.392387 -0.176984 -0.239571 -0.668542 -0.762280 0.323366 -1.176990 -0.953154 0.698599 1.048849 -0.182201 0.833649 -1.102753
placed 0.156764 0.295151 -0.086545 0.056765 -0.963645 0.958671 0.142458 -1.007856 -0.286631 0.831987 0.501498 -0.014477 -0.510293 0.078875 0.589834 -0.254978 -0.263925 -0.441556 0.819241 0.057665 0.357206 0.762036 -1.207288 0.054731 0.471501 -0.146872 0.241372 0.792774 -0.071371 0.865108 0.044016 -0.082026 -0.789840 -1.099858 0.294839 -1.119831 -0.187788 0.216911 -0.431794 0.154074 0.803777 -0.753777 -0.067424 -1.365815 -0.302196 0.328824 0.255513 -0.112654 -0.058051 1.060372
can -0.772688 -0.559410 0.015941 0.960319 -0.821139 0.369881 0.806103 -0.057766 -0.384780 0.689853 -0.067603 -1.301472 0.452239 0.455131 0.009522 -0.312748 0.605922 0.475528 -0.890992 0.772841 -0.282422 0.725576 -0.686349 0.798778 0.529412 -1.088106 0.375745 -0.003204 -0.609295 0.369030 -0.324670 -0.397720 0.206542 0.334806 -0.435839 0.502663 -0.021405 0.120060 -0.021344 -0.372926 -0.326025 -0.102411 0.156249 -0.548837 -0.547095 0.601856 0.998118 0.406407 0.551139 -1.011745
cause 0.354315 -0.314627 -0.709498 0.646307 -1.267160 -1.452341 0.316968 -0.394358 0.178706 0.106040 -0.822562 -1.427970 0.799491 0.493098 0.240018 -0.300835 0.125019 -0.204666 -1.172007 -0.188910 0.761966 -0.747244 0.902452 1.285563 0.392324 -0.844406 0.575899 0.085396 -0.316250 -0.284402 -0.203569 0.177039 0.250083 -0.547578 -2.590198 -0.300090 0.375267 0.254571 -0.529572 -0.008597 1.094657 0.085899 -0.624695 0.091217 0.902665 -0.451545 0.684711 -0.694926 -0.545128 -0.634069
between -0.129916 -0.430634 -0.341114 0.665304 0.226305 -0.134853 0.628117 -0.375262 -0.253202 0.195022 0.426616 0.104737 0.581119 0.319879 0.365440 -1.025624 0.027643 -0.427942 0.056645 0.303401 0.312816 0.443091 0.828059 1.508116 0.780448 -0.394782 -0.862222 -0.292681 -0.391974 -0.308240 -1.082527 -0.881283 0.142887 0.323066 -0.517117 -0.125942 0.319213 -0.514355 -1.116673 0.179434 -0.318899 -0.228326 -0.271565 -0.554290 0.490502 -0.338001 0.234954 -0.548221 0.320069 -0.184294
box -0.013990 -0.252618 0.344458 -0.139176 -0.615916 1.284110 0.568739 -0.549531 0.329742 -0.071786 0.115308 -0.280072 0.031458 -0.138032 0.082942 -0.603209 -0.467182 -0.113391 0.865260 -0.476192 -0.335331 -0.174437 -0.149432 0.471632 -0.020790 -0.406055 0.052245 0.023288 -0.158421 0.924846 0.881389 1.026221 -1.288172 -1.199296 0.047747 -0.381155 -0.391731 -0.111993 -1.170699 -0.722557 -0.584420 -0.947574 -0.481217 -1.283522 -0.256989 0.291874 -0.494415 0.351734 -0.064897 0.178454
use 0.205413 -0.472717 0.061730 0.454385 0.257274 0.657979 0.560680 -0.234086 -0.158598 1.170728 -0.736471 -0.091269 0.197113 -0.374329 0.002183 -0.494045 0.381501 0.386001 -0.466998 0.545995 -0.721388 -0.589607 -0.559587 -0.005840 0.194691 -0.425160 0.343014 0.318878 -0.916812 1.023530 -0.383559 -0.344792 0.024259 0.267598 0.113033 0.529345 -0.064221 0.925143 -0.227698 -0.313162 0.217425 -0.422247 -0.305892 0.048621 0.086690 0.359469 0.045494 -0.116403 -0.366537 -0.375865
large 0.082023 -0.137407 0.340785 0.911818 -0.640819 0.305476 1.754130 -1.299211 0.518083 -0.129221 -0.417485 -0.310546 -0.448609 0.193230 0.307592 -0.617070 -0.666448 -0.788325 -0.184240 -0.346572 0.300516 0.940652 -0.409872 -0.026588 -0.334656 0.005725 -0.515740 -0.025643 0.105362 0.499709 0.438755 0.260415 -0.095458 -0.223578 -0.366067 -0.082694 0.064950 0.738728 -0.556449 -0.355334 -0.053893 -1.056893 0.283225 -1.032179 -0.379021 0.572386 -0.185952 -0.680126 0.008980 -0.247036
left -0.582148 -0.794751 -0.148873 0.219692 0.475737 0.799244 0.399396 0.211485 0.053763 -0.510574 -0.543787 -0.057164 -0.009830 -0.885524 -0.274173 0.582329 -1.186426 0.822773 -0.723851 -0.071207 -0.024030 -0.494841 -0.055825 -0.030479 0.048067 -0.260496 -0.110962 0.742058 -1.321058 1.350525 -0.152969 0.587013 -0.880810 -0.608243 0.727793 -0.447490 -0.042398 0.495038 0.722750 0.331570 0.923575 -0.069319 -1.015016 -0.789105 0.061527 0.125413 -0.003266 -0.588767 -0.591893 -0.078553
our -0.236434 -0.361506 -0.054836 0.875649 0.318226 0.227377 0.360084 0.018608 0.444982 -0.304822 -0.192082 -0.224092 -0.618853 0.070220 -0.451400 0.409243 -0.286090 0.064651 -0.073770 -0.366963 0.663124 -0.339956 -0.688892 -0.975245 0.308446 -0.418830 0.680715 -0.187970 0.192314 -0.529818 -0.094686 -0.382208 -0.242555 -0.346987 -0.254256 -0.681831 1.151142 0.014358 0.575893 -0.827051 0.152326 -0.111242 -0.324022 -0.587177 -0.537417 -0.389264 0.512919 0.656574 0.030889 -0.366469
then -0.652593 0.425705 -0.444557 -0.086180 -0.260120 0.960036 0.445317 -0.534107 0.024664 0.398701 -0.042567 -0.267510 0.455588 0.658622 0.560865 -0.218181 0.161364 -0.232823 0.574022 0.425441 -0.526254 1.244479 -0.733003 0.602298 0.840555 -0.369576 -0.390634 0.206312 -0.253471 0.692648 -1.140796 -0.642632 -0.636497 -0.522098 0.395997 -0.548212 -0.059798 0.053334 -0.939172 0.523843 0.832412 -0.409182 -0.236826 -1.097856 -0.337436 -0.068164 0.225615 -0.210296 -0.143589 -0.273280
system 0.575990 -0.825451 0.275865 0.460701 0.688126 0.275476 0.749726 -0.550781 0.844560 0.777654 -0.087108 0.614949 -0.349717 -0.397632 -0.657905 -0.141936 0.379241 -0.515815 0.007956 0.031817 -0.563586 -0.760729 0.881197 0.191951 -0.068906 -0.422477 0.036306 0.141133 -0.069759 0.460724 0.827316 -0.444226 0.435790 0.103959 -0.341555 0.221128 0.038117 0.084761 -1.081013 -0.355613 -0.029273 0.008182 -0.313923 -0.640959 1.011485 0.274397 -0.112670 -0.885308 1.044995 0.424172
these 0.144415 -0.522978 0.093911 0.188311 0.628983 -0.178280 -0.257867 0.182386 -0.255279 0.324605 -0.134740 0.781402 -0.409766 0.253736 -0.189134 -0.528857 -0.471545 0.492598 -0.610905 0.218366 1.230084 0.131117 -0.750336 -0.136926 0.197561 -0.430284 -0.124950 -0.199893 -1.019285 0.841727 -0.491896 -0.524574 0.431991 0.007150 -0.569552 -0.954041 0.273716 0.749563 0.440592 -0.151113 -0.109210 -0.789692 -0.493585 -0.610046 -0.470073 -0.643405 0.597472 0.182290 -0.287528 -0.040643
three 0.123160 -0.143582 -0.349465 -0.428959 0.773816 0.218384 0.292290 -0.077621 -0.391208 0.406641 0.197641 0.620234 -0.156068 0.536923 -0.177236 -0.650967 0.201203 0.344503 -0.069455 0.144019 0.470175 1.533001 -0.195002 0.048319 0.418618 -0.245414 -0.888568 -0.262717 -0.334611 1.460220 -0.623659 0.541794 0.593721 0.174931 -0.469390 -0.405725 -0.297932 1.275642 -0.475052 -0.497957 -0.160123 -0.082628 -0.376327 -0.539357 -0.301826 0.142482 0.439194 0.313272 -0.313653 -0.263643
where -0.299568 -0.622935 0.144952 0.280524 -0.604827 0.588896 0.559789 -0.603083 -0.008145 -0.195093 0.257170 -0.292870 -0.401908 0.219528 0.275369 -0.499916 0.331829 0.086593 0.135310 0.429821 0.273491 0.399549 0.045804 0.062110 0.469581 -0.756007 0.194798 0.482784 -0.815689 0.181905 -0.577717 0.125579 -0.398156 0.195588 -0.044026 -0.169416 0.297817 -0.415252 -0.411233 -0.252918 -0.599773 -0.298348 -0.515765 -0.257968 -0.536181 -0.231560 0.667902 0.490424 0.330389 -0.655105
body -0.068647 -0.525119 -0.893446 0.318434 -0.252411 0.520681 0.463930 0.031816 0.671495 0.959149 -0.680818 -0.388670 0.289861 0.335619 0.952254 0.185838 -0.293389 0.003770 -0.289290 0.498229 -0.394721 0.498703 -0.482838 0.344928 -0.004403 -0.651036 0.415471 0.532259 0.229471 1.016171 -0.124354 -0.265016 -0.363245 -0.219963 -0.715294 -0.141435 0.545213 1.108570 -0.560191 -0.536988 0.665245 -0.328384 -0.458732 0.071174 0.012845 0.279803 0.340049 -0.183348 -0.175465 -0.363006
work -0.164631 -0.750431 0.052266 0.128134 0.083643 0.759501 0.674010 -0.014987 -0.168151 -0.042295 -0.444861 0.114803 -0.258545 -0.281285 -0.182794 0.162984 -0.083016 0.011868 -0.617308 -0.707529 -0.300378 -0.037982 0.093795 -1.100545 0.060201 -0.185364 0.308737 0.241155 0.322749 0.047393 0.476381 0.161090 -0.440274 0.301809 -0.520155 -0.236060 0.148882 -0.186241 0.117323 -0.751834 -0.379880 0.463553 -0.869317 -1.107397 -0.054884 -0.289722 -0.095043 -0.257432 0.062633 0.149787
your 0.337964 -0.738612 -0.042243 0.836921 0.187066 0.435349 0.269885 0.338219 0.161459 0.765020 0.170322 -0.879022 0.018363 -0.581420 0.393773 0.033140 0.235999 0.105767 -0.895112 0.119384 0.051033 -0.590837 -0.952340 0.054053 0.125973 -1.026247 0.057541 -0.138520 -0.116838 0.261789 0.260844 -0.701937 0.710243 -0.034380 0.363297 0.516348 0.797703 0.691756 0.276452 -1.412977 -0.193235 -0.172746 -0.495653 -0.245172 0.183424 0.867853 0.631392 0.469604 -0.234034 -0.724976
man -1.124208 0.059946 -0.177165 -0.038250 1.065624 0.674735 0.860520 -0.546537 -0.152405 0.703312 -0.076468 0.323855 -0.152872 -0.119567 0.220145 -0.168138 0.229699 0.053929 0.620631 -0.312758 -0.995150 0.836751 -0.855507 -0.332393 0.287398 -0.402529 -0.621407 -0.393838 0.250199 0.667387 -0.622528 0.039661 -0.512714 -0.292732 0.002582 -0.265802 -0.118132 0.969488 -0.000566 0.234627 0.359879 0.595054 0.017004 -0.447260 0.209099 0.409115 -0.661654 -0.742964 -0.542407 0.213387
produced -0.399307 -0.397979 -0.750012 0.421724 0.474052 -0.181276 -0.194411 -0.011777 0.511779 0.179049 0.022377 0.521936 -0.298060 0.238463 -0.103984 0.787765 0.207073 -0.252236 -0.093124 -0.389118 0.081501 0.466895 0.142444 -0.156497 0.041770 -0.222230 0.032012 0.012664 -0.345421 -0.013442 0.102459 0.727120 -0.369073 0.605881 -1.137114 -1.046397 -0.303488 1.653072 -0.490313 0.016816 0.717088 -0.280407 -0.462167 0.188901 -0.042828 0.104987 -0.594437 -0.206143 -0.146617 -0.206780
away -0.960630 0.050057 -0.004661 0.593982 1.032984 0.437274 -0.302251 -0.553782 0.061446 -0.624304 0.528826 0.379102 0.149874 -0.457975 -0.013874 1.007847 0.912859 0.114937 0.446446 0.295408 -1.310014 -0.510529 0.470194 0.286067 0.207414 -0.594694 0.099763 -0.336879 -0.769376 -0.223952 -1.100454 0.648222 -0.892712 -0.068202 0.132104 -0.193319 -0.047867 1.291769 -0.048787 -0.004318 0.912814 0.160326 0.042069 -0.769400 -0.261430 -0.046002 -0.116185 -0.459103 0.389551 -1.155114
being 0.149939 -0.081697 -0.595834 0.288282 0.187662 0.583572 0.099184 0.148447 0.165504 -0.070212 0.357864 0.438876 -1.049644 0.983017 0.146598 0.309014 0.364805 -0.232174 0.297535 -0.180417 0.186925 1.015493 -0.367126 0.141153 0.639435 0.251775 -0.075847 0.889622 -0.154984 -0.123599 -0.829960 0.083546 -0.994149 0.972126 -0.139810 -1.507622 0.125900 0.440120 -0.218214 0.276333 0.561789 -0.213206 0.074716 -0.853104 -0.335340 -0.104622 0.601752 -0.752175 0.017195 0.367967
way 0.010246 -0.120656 0.484306 0.784795 0.176301 1.138846 1.005085 0.179657 -0.465815 0.068463 -0.060116 0.410735 -0.106918 0.021856 0.246531 -0.220231 0.058312 -0.191129 0.184097 -0.116983 -0.210091 -0.459214 -0.612017 -0.215149 0.519355 -0.537787 0.365311 0.644346 -0.091040 0.297898 -0.126813 -0.452434 -0.354166 0.942724 -0.124846 0.403908 0.496949 -0.250946 0.133260 -0.218761 -0.188858 0.356390 -0.424171 -1.301143 -0.628233 -0.234673 0.511634 0.200663 0.719645 -0.051891
around -0.697539 -0.320066 0.717155 -0.135849 0.025267 -0.008125 0.687008 -0.584321 0.122109 -0.341619 0.484583 0.592653 0.267149 -0.426272 -0.128939 0.616795 0.332834 0.244575 0.850505 -0.341303 0.142995 -0.751318 0.588059 0.353809 0.907898 -0.219560 -0.123755 0.278992 -0.567123 -0.017332 -0.833658 0.401874 -0.685839 -0.001918 -0.214511 -0.604861 0.309443 -0.011143 -0.025845 1.024564 0.599516 -0.329510 -0.653735 -0.767975 0.218565 -0.520515 0.336774 -0.487055 -0.128607 0.323176
just -0.370482 -0.576581 -0.100957 0.603659 0.331565 0.523563 0.113689 0.461556 0.029506 0.573761 -0.161487 -0.375310 -0.058919 0.557817 -0.090158 0.312059 -0.047800 0.353810 -1.089381 -0.139649 -0.161957 -0.076515 -0.129295 -1.154530 0.048089 0.426250 0.840238 0.182905 -0.394640 0.477363 -0.518450 1.099735 -0.413662 0.228683 0.163526 0.118126 0.051330 0.183556 0.312802 0.806361 -0.157913 -0.419730 -0.211468 -0.939449 -0.144612 -0.074024 0.757892 -0.973746 0.084562 -0.082074
back -0.561517 0.314287 -0.081112 0.686715 0.143177 1.076525 0.831240 -1.554729 -0.442005 -0.371914 0.401082 -0.346154 -0.374279 -0.066899 0.334183 -0.620421 -0.041709 -0.619165 0.487488 0.495130 -0.180734 -0.079297 -0.202258 0.126790 0.674865 -0.785356 -0.174255 0.624978 -0.534249 0.244946 -0.981003 -0.589028 -0.439029 -0.298388 0.964440 -0.245926 0.553810 -0.522676 -0.341637 -0.426987 0.183855 0.786354 0.374616 -0.862788 -0.241045 -0.284728 0.616412 0.143442 -0.142491 -0.516540
very -1.040677 0.331510 -0.282136 0.671677 1.000465 0.171549 1.479034 -0.388284 0.185822 0.449408 -0.202572 -0.443527 -0.718140 0.561688 -0.348415 -0.598692 -0.298016 -0.551258 -0.266668 0.463657 0.046819 0.589843 -0.414103 0.157236 -0.216534 0.324407 0.654936 0.095277 -0.283526 -0.370898 0.290696 -0.591972 0.062882 -0.401887 -0.952544 -0.302576 0.028539 0.595583 -0.091124 0.282110 0.133857 -0.411306 0.000232 -0.270029 0.051350 -0.279979 -0.218117 -0.309683 0.524457 0.058310
world 0.609332 -0.417582 0.703839 0.306370 -0.138481 -0.148537 0.735988 -0.910011 0.199108 -0.351045 -0.191837 0.520833 -1.227162 -0.270019 -0.618902 0.006253 0.227427 -0.453003 0.744763 -0.148673 -0.481428 -0.272372 0.063335 0.639574 1.251944 -0.041662 -0.077899 0.527771 -0.197853 0.101261 -0.230156 -0.067811 -0.505395 0.954495 -0.637336 -0.652318 0.806976 0.140521 0.053480 0.522317 0.919436 0.038883 -0.014322 -0.539146 -0.366371 -1.043459 0.063423 -0.662468 0.419925 0.215301
before -1.186818 -0.048048 -0.058063 0.322815 0.021228 -0.274156 0.956476 0.041449 -0.449632 0.248577 -0.121615 0.016078 -0.017478 0.267329 -0.353543 0.476824 -0.203593 0.069509 -0.413566 0.419174 -0.220659 0.466176 -0.074531 0.037506 0.371628 -0.186180 -0.627685 0.499979 -0.153769 0.175439 -1.251139 0.993892 -0.672797 0.050485 0.123620 0.035606 0.373628 -0.035966 0.353886 0.613471 -0.385812 -0.355652 -0.464120 -0.778902 -0.230915 0.331354 0.143568 0.207031 -0.674616 0.137349
there -0.706229 -0.422848 -0.138041 0.589712 0.280300 0.500481 0.117619 -0.014780 -0.004030 -0.095243 -0.010577 -0.593112 -0.420007 0.823942 0.205679 -0.771182 0.095171 -0.180821 -0.549992 0.323147 0.419418 0.861116 -0.340986 -0.500023 -0.108180 -0.006868 0.587130 -0.016878 -1.353656 -0.227809 -0.499918 0.377460 -0.450147 0.210056 -0.196331 -0.709069 -0.233410 0.134846 -0.442432 0.293370 -0.637213 -0.629859 -0.269701 -0.469015 -0.801950 -0.370888 0.300021 0.009330 0.168224 -0.758592
well 0.673084 -0.061934 0.239413 -0.296301 0.304988 1.025927 1.009629 0.068459 -0.606351 -0.449282 -0.619174 -0.155161 -1.052289 -0.279433 0.021144 -0.639056 0.635115 -0.515767 0.058490 0.559953 -0.096964 -0.330114 -0.545861 -0.318477 -0.217517 0.161595 -0.203667 1.503681 -0.971770 -0.578943 -0.342922 0.181191 -0.433741 0.576524 -0.531591 -0.282890 0.087335 0.174056 -0.021384 -0.075043 0.396467 -0.015008 -0.480826 -0.774026 -0.331318 -0.066428 0.496997 -0.853398 -0.321303 -0.196884
As 0.598694 -0.166706 0.381916 0.060423 0.617111 0.709029 -0.007166 0.627411 -0.206108 -0.309675 -0.569405 0.005265 -0.907263 -0.661063 -0.510584 -0.913980 -0.616293 -0.050891 0.177452 0.173143 -0.979147 0.112434 -0.831770 -0.481412 0.417967 -0.111968 -0.019689 0.137529 -0.279385 0.513951 0.014056 0.876964 -0.927414 0.296896 0.433428 0.505516 0.364858 -0.034275 0.156207 0.472662 0.699944 -0.133749 -0.428579 -1.155916 -0.537867 0.259201 -0.015213 -0.973995 0.164345 -0.962190
each -0.358833 -0.100664 -0.527568 -0.028330 1.362158 -0.313047 0.956528 -0.428613 -0.613211 -0.004825 0.169845 0.840272 -0.078312 0.021549 -0.569577 -0.347698 0.061254 0.342828 -0.179405 -0.729843 0.406301 -0.013165 0.784367 -0.587408 0.192957 -0.345082 0.531971 -0.354114 -1.263880 0.539519 -0.618565 -0.406200 0.072450 0.216758 0.136930 -0.533258 -0.061809 0.007819 -0.300103 0.069317 0.239181 -0.885063 -1.080187 -0.165694 0.547382 0.095866 0.697563 0.697458 -0.385929 -0.656222
different 0.290265 0.127490 0.094694 -0.158992 0.805694 0.308027 1.007104 -0.200461 0.031471 -0.934948 -0.090717 0.666058 0.292560 0.518855 0.486884 -0.042460 0.051899 0.701173 0.129516 -0.440959 0.884155 0.796778 0.136659 0.610832 -0.112774 0.464319 -0.723648 0.106478 -0.549417 0.400300 -0.372417 0.006884 0.286032 0.113741 -0.967466 -1.036136 -0.692313 1.292536 -0.062926 -0.407002 0.114266 -0.503104 -0.089953 -0.947396 -0.412432 -0.736259 0.553479 -0.226443 0.392640 -0.115115
year -0.950544 -0.380049 -0.446029 -0.065867 1.738630 0.664419 0.351595 -0.196952 0.290110 0.705269 0.456683 0.141313 -1.063352 -0.177691 -0.797583 -0.414680 0.582426 -0.341484 0.091984 -0.355132 0.241073 0.552167 -0.418513 -1.220353 0.428361 -0.587936 0.018017 -0.416372 -0.500702 0.174632 0.379146 -0.300255 0.311087 0.848540 0.193644 -0.566746 0.061699 0.543593 -0.113702 -0.614109 -0.337250 1.398378 -0.388299 0.101436 0.133688 -0.088778 0.248873 0.565486 -0.200579 -0.406415
bottle -0.136590 -0.217154 0.763321 0.161573 -0.436898 0.384352 0.798434 0.324074 0.307344 0.792656 -0.661330 -1.408355 -0.311254 0.126193 0.047783 -0.594560 0.459767 0.230330 1.033495 -1.094156 -0.697067 -0.579721 -1.149641 0.281782 0.829347 -0.049212 0.276586 -0.652724 0.048322 1.115557 -0.043141 0.600935 -0.434521 -0.784901 -0.289713 -0.369189 0.001034 0.568025 -0.468079 0.343819 -0.499465 -0.169027 0.504090 -0.357497 -0.214675 0.875986 0.342235 -0.489588 -0.662928 0.138807
contained 0.055918 -0.359920 0.237095 0.138101 -1.454917 -0.253502 0.156246 -0.699267 -0.123900 0.232700 0.433591 -0.844842 -0.291806 0.106293 0.312905 -0.528357 0.234062 -0.327167 0.502632 -1.377958 0.107178 0.596989 -0.458322 0.556105 0.680997 -0.278763 0.396140 -0.056040 0.347111 0.739663 0.856364 1.111682 0.104789 -0.220451 -0.703490 -0.931050 -0.522499 0.473221 -1.154983 -0.541148 0.060599 0.218273 0.163718 -0.368610 -0.198154 0.452723 0.062605 0.023228 -0.219527 -0.396032
under 0.107029 -0.078803 0.071473 0.364967 0.208359 0.974554 0.227740 0.004590 0.201592 -0.256738 0.211978 0.786004 -0.139359 0.473990 -0.087957 0.260866 -0.119345 0.499496 0.451422 -0.044246 0.148520 -0.662990 -0.141800 0.087285 -0.589081 -0.545754 0.613963 0.838096 0.289609 0.592381 0.084812 0.832303 -1.781387 -0.470480 -0.262407 -0.053378 0.302755 0.341410 0.127385 -0.316705 0.170808 -1.290829 -0.087302 -0.891170 -0.723047 -0.387793 0.636187 0.432275 0.592817 0.007596
They -0.577523 0.055213 -0.172231 0.620888 0.478954 1.021996 -0.592403 0.652964 -0.405845 0.597811 0.423355 0.038118 -0.256205 0.102164 -0.121151 -0.066103 -0.577553 0.099331 -0.075083 0.855063 -0.585535 0.362598 -1.198585 0.758348 0.155803 -0.244208 0.535693 -0.357165 -0.387325 -0.427703 -0.293887 -0.468941 -0.814637 -0.672328 -0.212116 -0.686747 -0.024066 0.631046 -0.060201 0.191906 0.622554 -0.924322 0.023794 -0.852812 -0.654703 -0.065607 -0.660699 -0.253324 0.438473 0.310341
him -0.276196 -0.387152 0.134786 0.162400 1.047846 1.515637 0.355223 0.512325 -0.321663 0.206461 -0.859928 -0.386791 0.061383 -0.498684 -0.320690 0.480338 0.566905 0.654704 -0.767497 0.014261 -1.776993 -0.080896 -0.549649 -0.084863 0.367361 -0.211862 0.520108 0.577055 -0.037221 0.499053 0.070598 -0.209761 -0.808831 0.031276 0.804798 -0.128287 -0.668068 0.591806 0.619434 -0.471930 -0.305507 0.576550 -0.586257 -0.804575 0.335843 0.508662 -0.594627 -0.275216 0.280867 -0.337776
off -0.533181 0.058533 -0.290993 1.088464 0.289205 0.916853 0.787615 -0.093838 -0.318632 -0.378030 -0.180675 -0.330079 0.678508 0.010925 0.527478 -0.368321 -0.436429 0.152350 -0.041901 -0.136576 -0.479799 0.304709 0.068642 0.416632 0.241184 -0.704225 -0.558636 0.217369 0.413159 0.267956 -0.931078 -0.295690 -1.051556 -0.021395 0.066259 0.035225 -0.072383 -0.202059 -0.361806 -0.464166 -0.140777 0.422021 0.376551 -0.604439 -0.053204 0.865578 0.142775 -0.481669 -0.321643 -0.528757
during -0.125660 -0.964748 0.108406 -0.283361 0.490901 0.489165 0.215599 0.068691 -0.148570 0.014352 -0.055017 0.550648 0.111929 -0.671282 -0.750538 -0.486437 -0.029701 -0.104872 -0.290745 0.730708 -0.434749 0.357904 0.640495 0.262607 0.581813 -0.820175 -0.463411 0.184347 -0.451719 0.234325 -0.167842 0.481424 -0.260007 1.084870 -0.226009 0.343404 0.176263 -0.249494 -0.667284 -0.638180 -0.221158 0.577556 -1.045266 -0.369195 -0.229972 -0.288129 -0.112919 0.390751 0.240783 -0.736704
took -0.880062 -0.140478 0.495879 -0.070515 -0.038375 0.323309 0.457484 -0.347418 -0.047367 0.314973 -0.516105 -0.911240 0.033449 0.007349 -0.240210 0.037431 0.233172 -0.217260 0.439383 -0.398031 -0.838180 1.155952 -0.673089 -0.769822 0.812461 -0.628838 -0.106223 -0.302375 0.781355 0.731769 -0.412706 0.322403 -0.060366 -0.115747 -0.319657 0.339470 0.132183 0.384862 -0.213550 -0.106015 0.228597 1.434436 0.112902 -0.970793 -0.370516 0.447672 -0.106709 -0.108474 -0.238031 -0.615740
life 0.078583 -0.139198 0.064808 0.253053 1.032033 0.957799 0.674312 0.108790 0.344157 0.125958 -0.905935 0.310299 -0.082714 -0.018593 0.222698 -0.196106 -0.269848 -0.133442 -0.201617 0.144356 0.005820 -0.563440 -0.880875 -0.801688 -0.316633 -0.466141 0.282339 0.225518 -0.053859 0.357231 -0.363467 -0.836818 -0.021296 -0.168484 -0.164028 -0.110616 0.593005 0.150359 0.178788 -0.501418 0.158780 0.642944 -0.351971 -0.582646 -0.352041 -0.442720 0.089430 0.048660 -0.523695 -0.310543
set -0.601574 -0.343025 -0.794342 0.944131 -0.035216 0.756540 0.985565 0.142348 -0.495008 0.648765 0.671218 0.275089 0.219604 0.058348 0.523599 -0.465124 0.210921 0.289854 -0.076065 -0.095533 -0.070022 0.212971 -0.496623 -0.257733 0.437538 -0.659848 0.018403 -0.555991 -0.343794 0.214521 -0.125571 -0.687327 0.059304 0.713661 -0.234529 0.226058 0.148959 -0.030174 -0.224806 -0.632415 -0.134081 -0.085766 -0.030329 -0.452756 0.130787 0.589104 0.175913 -0.098213 -0.457449 0.119940
These 0.599361 0.027657 0.122707 -0.066112 -0.015142 -0.628704 -0.579151 0.767602 -1.158192 0.649347 -0.075001 0.014363 -0.617051 -0.156309 -0.265295 -0.543147 -1.321327 -0.485579 0.098526 -0.011068 0.417246 0.527507 -0.964758 0.639401 -0.197982 -0.436734 -0.341439 -0.343841 0.689587 0.369292 -0.096211 -0.332229 0.327947 -0.587408 -1.312899 -0.940243 0.174844 0.441363 -0.489056 -0.315214 0.214446 0.536923 0.298963 -1.025231 -0.268832 0.193855 -0.332328 -0.629408 0.823532 0.270395
last -1.326136 -0.406003 -0.372693 0.134026 0.945536 0.373866 0.164549 -0.862547 0.036055 0.367431 0.372995 -0.160879 -0.169213 -0.225926 -0.883827 -0.254849 0.298488 0.174917 -0.168295 0.210523 0.621704 1.271757 0.322414 -1.087944 0.724081 -0.779064 -0.154597 -0.725064 -0.669023 0.734650 -0.339501 0.118741 0.323910 0.357578 0.339336 -0.460294 -0.123758 0.202925 -0.219733 -0.728077 -0.901508 1.039135 -0.273182 0.053695 -0.268511 -0.184411 0.135829 0.983723 -0.449184 -0.102718
There -0.096179 -0.312534 0.155406 0.179319 -0.145696 0.123917 0.357827 0.010965 -0.489887 -0.039476 0.139394 0.610524 -0.080624 0.635933 0.709074 -0.639854 0.025452 -0.369770 -0.232864 0.274171 0.128631 1.308587 -0.380545 -0.024020 -0.463849 0.068666 0.030886 -0.372663 -0.600350 0.215429 0.044303 0.485138 0.040124 0.329322 -1.144308 -0.162141 -0.731055 0.544779 -0.524236 0.245765 -0.226142 -1.246406 -0.572603 -0.767025 -0.528904 0.025481 -0.045039 -0.249983 0.667658 -0.468407
several -0.135020 -0.693071 0.297227 -0.610170 -0.008363 -0.134142 0.270441 -0.290125 -0.311007 -1.012231 -0.139956 0.054129 -0.331073 -0.218229 -0.014908 -0.297864 -0.204004 0.243203 -0.288056 0.014244 0.851203 1.109085 0.274906 0.162800 -0.031822 0.000128 -0.326027 -0.108430 -0.978565 0.185167 0.426393 0.535464 0.213849 -0.191406 -1.107054 -1.511478 -0.423132 0.399949 0.110797 -0.573450 -0.262924 0.066532 -0.744044 -0.654916 -0.284326 -0.505408 0.249423 -0.300305 0.115307 -0.355950
full -0.190029 -0.271146 0.760787 -0.153917 -0.613822 0.215371 0.381380 0.295662 0.113895 0.521447 -0.416334 -1.582996 -0.259219 -0.340539 -0.351647 -0.394084 0.417955 -0.099811 0.784781 -1.364360 0.262765 -0.645040 -0.462932 -0.299102 0.506238 -0.435163 -0.128457 -0.298391 -0.112462 1.039891 0.366052 0.806274 0.011756 -0.996359 -0.592129 -0.465420 0.205986 0.603205 -0.577694 -0.569273 -0.588621 -0.570779 -0.107931 -0.465668 0.182826 1.285634 0.908822 -0.187943 -1.029152 0.347594
oil 0.030309 -0.444056 -0.755813 0.195626 0.038564 0.291849 0.688958 -1.051468 0.375440 0.043050 -0.054158 0.686601 0.310917 -0.463786 1.093744 0.698335 0.607465 0.457286 0.565222 -0.116120 -0.815692 -0.266637 0.331274 -0.058755 0.238569 0.044565 0.753232 0.181358 -0.722728 -0.125399 -0.184060 -0.352921 -0.364188 0.290660 -0.145026 -0.961329 -0.156750 1.146893 -0.227065 -0.022102 1.409395 -0.183893 -0.071318 -0.041716 0.714664 -0.273248 -0.187483 -0.835829 0.107905 -0.202185
When -0.076348 -0.361340 0.275481 0.169536 -0.350174 0.718151 -0.626804 0.314178 -0.572578 0.196919 -0.095348 -0.121941 -0.958127 -0.404070 -0.165098 -0.282881 -0.451269 -0.497289 0.056971 0.084936 -0.759339 0.297944 -1.296889 -0.344088 0.683443 -0.543368 -0.045974 0.351398 -0.157149 0.446526 -0.151612 0.701685 -0.782664 0.303871 1.006204 -0.002617 0.095959 -0.099779 0.248173 0.130923 0.117691 0.252169 -0.167248 -0.457159 -0.642643 0.568667 -0.437270 -0.130675 -0.243266 -0.607637
area 0.223650 -0.125459 -0.065531 0.533269 0.102001 0.221085 1.265079 -0.955084 -0.067293 0.003887 0.957259 0.841227 -0.728628 0.295866 0.393095 -0.910102 0.376948 -0.548306 0.601552 -0.116895 -0.107371 -0.407307 0.075846 0.347175 0.539940 -0.545955 0.374896 0.337935 -0.088337 0.294009 -0.204695 -0.426629 -0.322884 0.643495 0.090856 0.386855 0.615801 -0.435082 -0.458409 -0.258664 0.079131 -0.146120 -0.226366 -0.624021 -0.055321 -0.029362 0.714809 0.215168 0.311423 -0.277308
various 0.697487 -0.650043 0.649898 -0.122433 -0.942543 0.201815 0.295018 -0.736731 0.032679 -0.706362 0.200882 1.067681 0.066173 -0.571819 0.538060 1.088421 -0.026199 -0.262165 0.351813 -0.339044 0.851825 -0.277812 0.138291 -0.377088 -0.297418 -0.819450 -0.657005 0.308193 -0.551368 0.584812 -0.614509 0.196227 0.516772 -0.255337 -0.407581 -0.034758 0.093934 0.581517 -0.239209 -0.726614 0.377467 -0.567526 -0.468741 -1.091860 -0.513730 -0.036075 0.919367 0.494681 0.725389 -0.276745
great -0.223666 0.073995 0.306096 0.224732 0.154312 -0.416594 0.661188 0.013710 -0.256687 0.120893 -0.409526 -0.138902 0.028392 0.064582 -0.763143 -0.253799 0.208763 -0.487815 -0.046014 0.383188 -0.067551 0.146702 0.512463 -0.918860 0.225990 -0.149035 -0.351792 -0.799926 0.241311 0.099278 -0.814881 1.070082 -0.171081 -0.250622 -0.984940 0.732194 0.693111 0.377311 -0.321043 -0.206945 0.291399 -0.560063 0.054131 -1.014585 0.088191 0.561673 0.313002 -0.769578 -0.496709 -0.601358
car -0.184473 -0.748187 -0.494215 0.632135 -0.573709 -0.213198 0.211510 -0.553308 -0.154658 0.253652 -0.424365 0.286303 0.085357 -0.277673 0.394696 -0.495568 -1.109313 -0.174924 -0.771757 -0.162465 0.253610 -0.115338 0.136664 -0.678773 0.060377 -0.596249 -0.279950 0.167617 -0.241076 0.975833 -0.378542 0.873564 -0.596338 -0.740163 -0.140567 0.179169 -0.044177 0.166391 -0.379614 0.062309 -0.080534 -0.134447 -0.713106 -0.027792 0.256803 0.157357 -0.245992 -0.516747 -0.681071 -0.404829
down -0.241811 0.426166 -0.101748 0.690500 -0.093379 0.921810 0.040144 -0.785135 -0.627712 -0.181340 0.216433 -0.345958 0.197869 0.295415 0.050183 -0.101843 0.385314 0.293498 -0.712606 0.209627 0.164808 0.817428 0.286253 0.165171 0.668989 -0.040128 -0.670089 0.049502 -0.284189 0.080948 -1.281803 -0.760802 -0.462889 -0.612987 0.745740 -0.792099 -0.080103 0.177502 0.174405 -0.494596 -0.170153 -0.267957 0.213603 -1.087440 -0.008334 -0.020035 0.472556 -0.359289 0.231966 0.177258
while -0.022205 0.201174 -0.370068 0.526880 1.179193 -0.044991 0.764829 -0.166832 -0.913184 0.211151 0.051259 0.148341 -0.252898 0.097377 0.180111 -1.351614 -0.084995 -0.080401 -0.453940 -0.574086 0.141810 -0.350379 -0.343596 0.101157 0.377592 -0.346919 -0.540587 0.015856 -0.386406 0.351064 -0.665792 -0.410748 0.145294 -0.269762 0.109458 -0.061724 -0.406198 0.074672 -0.309303 -0.308093 -0.777407 0.333287 -0.433078 0.103658 0.185224 0.338536 0.439373 -0.002321 -0.035929 -0.948968
number -0.495601 -0.650669 0.768840 0.275739 -0.149535 0.305005 1.743618 -0.369818 0.416308 0.214578 -0.458239 0.302259 -0.020585 -0.566395 -0.301388 -0.864482 -0.649664 0.154443 0.453029 0.085751 0.222054 0.514883 -0.189604 -0.034331 0.095909 -0.058134 -0.640063 -1.200853 -0.379183 0.523912 0.827078 -0.218077 0.199532 0.039744 -1.030133 0.651112 0.009345 0.384887 -0.017737 -0.197157 0.128955 -0.667729 0.240973 -0.584012 -0.276052 -0.136876 0.032560 -0.695041 -0.186708 0.681888
An -0.219323 -0.119214 -0.261699 0.398329 -0.255776 -0.845271 0.549446 -0.508760 0.241275 0.572324 0.447922 0.264925 -0.141009 -0.049275 0.838464 -0.173828 -0.098103 -0.611059 0.592960 -0.850800 0.255750 0.638806 -0.130852 -0.400401 0.536474 0.279496 0.589451 -0.600115 0.823130 0.129407 0.608083 -0.190027 0.334243 0.610028 -0.329703 -0.684790 0.205011 -0.117593 -0.355398 0.394067 0.758045 1.642764 0.028660 -0.165232 0.509041 -0.120381 -0.503695 -0.525117 0.487536 0.138012
building 0.285913 -0.616545 0.254323 0.251836 -0.150725 0.463833 0.244556 -0.940377 0.889170 -0.004049 -0.083392 0.192545 -0.125047 0.218007 0.571152 -0.292641 -0.017305 0.296994 -0.199705 -0.352813 0.082956 -0.001235 0.706219 -0.071594 -0.030698 -0.242754 -0.249793 0.453597 0.170435 0.831447 0.503955 0.061974 -0.569303 -0.001322 -0.068936 -0.014183 0.379629 -0.053018 -0.667542 -0.272396 -0.200249 0.336513 -0.298607 -0.649814 0.009815 -0.294893 0.347730 -0.781811 0.516684 -0.170061
local 0.393712 -0.488322 -0.279289 0.902713 0.653248 -0.097055 0.622448 -0.225820 0.731878 0.502143 -0.186735 0.079429 -0.720019 0.230019 0.187389 0.360437 -0.984026 -0.203170 -0.078856 -0.053002 0.102542 -0.708938 -0.957239 0.708892 -0.497230 -0.051627 0.578238 0.271545 0.360527 0.197946 0.550321 -0.275267 -0.023155 -0.128437 -0.654851 -0.821660 0.124421 0.572109 -0.229036 -0.697190 -0.023075 0.841042 0.078072 0.085033 0.302165 -0.839506 -0.507316 0.466310 0.104365 0.181679
right -0.504795 0.229096 -1.201312 0.518212 0.603345 1.147072 0.335037 0.203291 -0.190493 -0.806330 0.080809 0.266193 0.237586 -0.403030 -0.065635 0.681226 -0.642850 0.245884 -0.423991 -0.103722 0.120071 -0.145006 0.131631 -0.311290 -0.082524 -0.918360 0.320637 0.601045 -0.432280 0.205301 -0.691439 -0.501281 -0.797919 -0.448158 0.419147 -0.248858 0.491469 0.283821 0.484187 -0.488846 1.424724 -0.358884 -0.677537 -1.004970 -0.112734 0.057471 0.411306 -0.023346 -0.316862 -0.412575
now -0.926008 -0.378660 0.204342 0.961244 0.484910 0.187333 0.009719 0.248898 -0.251621 0.270141 0.328044 0.230093 -0.073369 0.216442 0.219782 0.521818 0.170281 0.661056 -0.895230 0.132135 0.302968 -0.462132 -0.101184 -1.190733 -0.099648 0.237339 0.743021 0.110300 -0.496275 -0.282489 -0.853692 0.176792 -0.926665 -0.110869 0.087338 -0.548073 0.451073 0.365762 1.134394 0.450625 -0.170947 0.112099 0.162479 -0.492589 -0.284805 -0.419653 0.681668 -0.530384 0.079861 0.073022
few -0.980665 0.089580 0.981489 0.340081 0.866888 -0.273543 0.596980 -0.694673 -0.364867 0.418852 -0.136030 0.099701 -0.827940 0.550487 -1.344139 -0.342991 0.122586 -0.463264 0.225896 0.582757 -0.062469 -0.087773 -0.046613 -0.024644 0.148721 -0.302928 -0.802843 -0.802199 -0.744740 0.463309 -0.935684 0.666387 0.517170 -0.497020 -0.602749 -0.477927 -0.250993 0.850369 -0.239830 0.399421 -1.251544 0.330874 0.455630 -0.698678 -0.560619 -0.314047 -0.529623 0.295632 -0.376899 0.231789
side -1.051782 -0.155266 -0.857732 0.711525 0.394438 0.120091 1.101616 -0.002903 -0.601057 -0.810041 -0.035422 0.986827 0.283026 -0.731364 -0.982710 0.226397 -0.775096 0.532694 -0.514297 -0.422198 0.456653 0.083089 0.964442 -0.523560 0.038068 -1.111307 0.436925 0.369873 -0.715422 0.351531 -0.526496 -0.613789 -0.661112 -0.290412 0.140040 -0.174458 0.646011 0.151169 0.761815 -0.364607 0.851787 -1.100193 -0.701214 -0.144850 -0.032159 0.540371 0.245842 0.392322 -0.716092 -0.249130
city -0.229734 -0.263921 -0.184285 0.243530 0.292766 0.754303 0.306694 -0.449420 0.115649 0.327603 0.148032 0.606352 -0.626995 -0.715633 -0.363717 -0.549620 -0.624702 -0.549830 0.017747 0.844610 0.295200 0.515241 -0.142435 -0.662387 0.199402 -0.658302 -0.441796 0.482969 -0.151253 -0.233624 0.504075 -0.146057 -0.521711 0.180580 -0.040589 0.018828 0.448748 0.168097 -0.133607 -0.550650 0.269187 -0.159122 -0.354834 -0.245379 -0.113180 0.159906 0.011446 -0.244839 -0.261048 0.515221
day -0.483740 -0.453473 -0.916089 -0.304866 0.952758 0.831925 0.442404 0.710663 -0.013893 0.101809 -0.720348 -0.062581 0.008854 0.460068 -0.941805 -0.653437 -0.360003 -0.323897 0.487393 0.023740 -0.070911 0.343716 0.304683 -0.535738 0.997050 -0.785439 0.566558 -0.051892 -0.609885 0.127422 -0.474271 0.092652 -0.479867 0.795224 -0.276658 -0.219154 0.193147 -0.324519 -0.687418 -0.101060 0.056317 0.308109 -0.977013 0.150496 -0.321081 -0.641070 0.101688 0.461471 -0.554970 -0.744665
My -0.781099 0.136592 -0.769108 0.663530 0.430152 -1.235693 -0.383010 -0.179782 -0.983247 1.371895 0.803886 0.629655 -0.423085 -0.511349 0.500704 -0.183894 -1.312471 -0.482995 -0.700716 -1.014879 -0.203229 0.422212 -0.792929 -0.890246 0.113086 0.185149 1.460695 -1.068411 0.782718 0.740587 0.431316 -0.094945 0.077259 -0.592799 0.349641 -0.429290 -0.105041 0.397408 0.264158 0.280140 0.183740 0.372273 -0.579014 -0.156968 0.756160 0.219655 -1.141766 0.325939 0.076131 0.102330
information 0.565736 -0.720647 -0.047916 1.151143 0.214224 0.331318 0.778946 -0.096508 0.234932 -0.405770 -1.006744 -0.594129 -0.273374 0.018643 -0.410359 -0.350270 -0.429098 -0.177483 -0.721874 -0.785304 0.126760 -0.899308 -0.126471 -0.026847 -0.001360 -0.247558 0.342642 -0.157315 -1.281169 -0.098520 0.318323 -0.233802 0.502039 0.654951 -0.657040 -0.316785 -0.811201 0.398587 -0.322955 -0.191366 -0.166950 -0.047220 0.008694 0.514070 0.130323 -0.354942 -0.076621 -0.203455 0.136379 -0.952174
same -0.004757 -0.360505 0.008724 0.177951 0.063339 0.697470 0.305828 -0.026717 -0.065533 0.345484 -0.086999 0.302027 -0.722531 -0.435097 -1.098488 -0.363657 -0.413238 -1.103493 0.366212 0.501525 0.008681 -0.578409 -0.625488 -0.776191 0.019443 -1.617083 0.508239 1.041670 -0.269330 -0.109251 0.610439 -0.088311 -0.118350 0.909142 -0.425719 0.547079 0.157912 -0.682190 -0.405097 -0.055155 0.259826 0.492967 -0.567559 -0.465129 -0.354278 0.105207 0.143008 0.785435 0.470436 -0.051322
make -0.018768 0.020131 0.371134 0.894613 0.621189 0.941689 0.594558 0.661291 0.166559 0.700644 -0.090195 -0.952942 0.239593 0.620555 -0.106754 -0.460765 0.612363 0.816993 -0.266877 -0.144927 -0.296969 -0.799337 -0.467283 0.837834 0.746183 -0.074560 0.570575 -0.555442 -0.332066 0.448478 0.032457 -0.946131 0.271146 -0.072537 -0.098412 0.355672 0.258232 0.305516 0.166152 -0.317221 -0.483383 0.001841 0.379806 -0.626402 -0.105883 -0.120636 0.570484 -0.216054 0.073660 0.038668
paper -0.217030 -0.399195 -0.157735 0.492682 0.170121 0.684747 -0.242460 0.392692 -0.140291 0.246687 -0.005635 -0.605555 -0.068929 -0.029098 0.095504 -0.466877 0.101748 -0.753484 0.348022 -0.841207 0.495754 -1.075104 -0.436159 -1.578977 -0.012798 -0.198719 0.670144 -0.372149 -0.562295 -0.688735 -0.134308 0.101128 -0.426406 -0.262846 -0.420932 -0.561706 -0.336081 -0.302816 -0.657764 0.117146 -0.142988 -0.112228 -0.516035 -0.674789 0.357413 -0.074050 -0.062757 -0.254232 -0.520787 -0.008212
those 0.119340 -0.957650 0.179621 0.280955 0.012425 0.009584 0.900987 -0.258026 -0.550149 0.159668 -0.427677 1.027682 0.019426 0.105177 0.431703 -0.419136 0.284928 0.402939 0.303901 0.696815 -0.125828 -0.462449 -0.811827 0.135315 0.112079 -0.525929 -0.265519 0.089702 -1.047639 0.031129 -0.949941 -0.387846 0.058258 0.662993 -0.978595 -0.100342 -0.219056 0.162691 0.330652 0.365100 -0.057852 -0.102103 -0.574529 -0.058829 -0.177715 -0.796304 -0.240721 -0.100658 -0.194778 0.113597
His -0.169058 -0.391413 -0.364568 -0.528742 1.088859 -0.595158 -0.310457 0.447132 -0.118390 0.683653 -0.728464 0.133695 -0.601199 -0.751925 -0.501787 -0.548394 -0.896508 -0.113699 -0.251508 -0.065850 -1.081284 0.510268 -0.536970 -0.273665 -0.377551 -0.071286 0.928531 -0.594689 0.318285 0.188425 1.040729 -0.027002 -0.159091 -0.228863 -0.492459 -0.429517 0.492913 0.800559 0.141409 -0.329969 0.571242 -0.312672 -0.671020 -0.360984 0.117904 0.045292 -0.928053 -0.428051 -0.047955 -0.462429
both 0.167524 0.158022 0.272050 -0.341853 0.706640 0.193230 0.068929 -0.051843 -0.624830 -0.023635 -0.098317 0.409649 0.172377 0.232679 0.737562 -0.336555 0.181149 -0.253883 -0.532454 0.554584 0.432984 -0.866903 -0.321987 0.169183 -0.445828 -0.037967 -0.358589 0.766518 -0.384007 -0.013373 -1.096568 -0.309762 0.036114 -0.638023 -0.326186 -0.106180 0.379047 0.241470 -0.161113 -0.025244 0.100899 0.364926 -0.827907 -1.154403 0.302131 -0.583683 0.309565 -0.321523 0.067644 -0.646798
high -1.306289 -0.206953 -0.319380 0.535314 0.898539 -0.551765 0.732219 0.474590 0.352528 -0.342914 0.972289 -0.185690 -0.161822 -0.028912 -0.123092 0.510446 -0.231728 -0.154492 -0.291082 0.507238 0.310899 0.288112 0.798232 1.396447 -0.230888 -0.355906 -0.545675 -0.503540 0.041297 -0.318007 -0.196879 0.246580 -0.394247 -0.639832 -0.333885 -0.050480 0.595673 -0.156865 0.042349 -0.212373 -0.501184 0.111268 -0.614156 -0.932854 0.975117 0.255822 0.499627 -0.057291 0.742955 -0.331370
order 0.987118 -1.253678 0.004462 0.157423 0.285731 -0.095520 0.102366 1.165322 -0.041592 0.211403 0.148775 0.510533 -0.400897 0.147235 0.111153 -0.086627 0.413967 -0.089064 -0.444972 -0.800755 -0.671926 0.126326 -0.027086 0.622024 0.711124 -0.001010 0.432882 0.007997 0.399860 0.351902 0.332106 0.287474 -0.156318 1.112525 0.073300 -0.292534 0.215224 -0.109165 -0.447789 -0.780801 -0.796867 0.441361 -1.080617 -0.814582 0.228772 0.307127 0.003915 -0.048637 0.373301 -1.097951
team -0.223283 -0.147636 -0.335232 -0.237522 0.200444 -0.068855 0.359349 -0.589211 -0.412745 0.692909 -0.005440 0.408616 0.069684 -0.535669 -0.139989 0.035728 -0.284889 -0.185161 -0.003621 0.761486 -0.392215 0.605626 0.262521 0.263988 -0.278184 -0.648988 0.229758 0.125846 0.407223 0.670599 0.294941 -0.217908 0.173950 -0.729154 -0.785250 -0.056596 0.309126 0.947356 -0.298460 -0.551272 0.922749 0.332341 -0.163380 -0.796173 0.362785 0.356630 -0.102605 -0.359231 0.690458 -0.081267
country -0.049613 -0.210464 -0.549738 0.118754 0.993031 0.395831 -0.076516 -0.697083 0.661578 -0.257889 0.466633 0.015575 -0.429161 -0.261425 0.096456 -0.357889 0.472084 0.293528 -0.167595 0.497554 0.754852 -0.682424 0.082843 -0.172770 -0.317731 -0.484734 -0.162084 0.456237 -0.912370 0.202525 0.254661 0.089911 -0.583715 -0.361626 -0.077325 -0.477075 0.524635 0.637145 0.220323 -0.252894 0.451963 -0.132139 -0.274016 -0.021182 0.136329 -0.413629 0.797901 -0.420367 -0.269055 -0.035482
government 0.227378 -0.847160 -0.529231 -0.148331 0.701733 0.132625 -0.089587 -0.258230 0.173040 0.388525 0.015225 0.050846 -0.653942 -1.239968 0.340540 -0.288126 -1.009407 -0.425884 -0.520700 0.504175 -0.278006 -0.097429 -0.217610 0.400322 -0.278493 -0.566538 0.305015 0.198274 0.215067 0.108926 0.653290 -0.884319 -0.173641 -0.277444 -0.361506 -0.424131 0.955815 -0.245132 0.040587 -0.267143 0.779805 0.723550 -0.843649 -0.846431 0.808983 -0.612893 -0.179749 -0.616832 0.600736 -0.076399
how 0.136487 0.073773 0.017875 0.625062 0.480181 1.120190 -0.183839 0.112054 -0.094203 0.286407 -0.295025 -1.185694 -0.367151 -0.507801 -0.253168 -0.031055 0.062195 -0.036982 -0.538481 0.800878 -0.042099 -0.526152 -0.635921 -0.281764 0.026273 -0.260916 0.224858 -0.610970 -1.237239 -0.306640 -0.533458 -0.716358 0.573221 -0.140420 0.033176 -0.164499 -0.027048 0.175570 0.017430 -0.035776 0.446547 0.300500 0.134000 -0.721742 0.206850 -0.386768 0.691881 -0.587299 0.658175 -0.330038
light 0.318969 0.308836 0.030556 0.114801 0.409399 0.579403 0.189958 -0.004417 0.313739 -0.246158 0.061547 -0.262557 -0.164939 0.439346 0.449449 0.487561 0.073239 -0.781986 0.396295 -0.636062 0.241002 -0.540130 0.029880 -0.202639 -0.489280 -0.441497 -0.335726 0.841418 0.528079 0.310838 -0.516864 -0.215207 0.214437 -0.857898 0.084712 -0.318179 0.012781 -0.027984 -0.779724 0.047641 -0.105284 0.208376 -0.219178 -1.103571 0.244345 0.149635 0.659726 -0.183119 1.165466 -0.536719
long -0.510077 -0.419542 0.388614 0.099588 -0.123549 -0.255802 0.513812 -0.396190 -0.112779 0.176784 0.010082 -0.559703 -0.916798 0.281508 -0.770031 0.280470 0.106214 -0.882530 -1.017574 0.021142 0.395837 1.104741 0.227200 -1.179331 -0.248888 0.341615 0.102733 0.044752 0.246140 -0.362629 0.074271 0.742430 -0.071136 -0.189079 -0.255574 -0.591092 -0.033862 -0.467880 0.107557 -0.152214 -0.883468 0.036265 -0.520384 -1.045417 0.160211 -0.218900 0.252530 -0.178793 0.416708 0.363134
room -1.029185 0.003071 -0.673711 -0.099587 0.314153 0.008753 0.704368 -0.858240 0.448994 -0.067545 -0.010819 -0.527520 -0.244552 -0.110618 -0.624962 0.489618 -0.345581 -0.484599 -0.518852 0.176716 -0.083146 0.702060 0.364384 0.245143 0.323972 -0.627781 0.382882 -0.045632 -0.186122 0.233859 0.057298 -0.326633 0.154629 -0.945434 0.399390 -0.438862 0.260581 -0.275211 -0.117746 -0.095128 0.313058 -0.201853 -0.941469 -0.700749 0.630341 -0.155294 -0.169880 0.921809 -0.243052 -0.012744
public 0.222410 -0.237463 -0.317232 0.621316 -0.387730 -0.189135 1.445982 -0.161455 -0.183474 -0.762907 -0.019719 -0.182854 -0.931485 -0.127437 0.007499 0.000383 -0.021001 -0.525292 -0.005322 -0.759342 0.677287 0.234918 -0.509166 0.079313 -0.733183 -0.442687 -0.444079 0.562687 -0.078017 -0.237734 0.603241 0.135788 0.303835 0.491133 -0.916108 -0.464466 -0.462868 0.391795 0.106374 -1.120039 -0.123433 0.986464 0.327146 0.149374 -0.165534 0.300028 0.438841 0.570471 0.583859 -0.282041
shows 0.167763 0.387661 -0.192453 0.579334 0.472014 1.577473 0.095043 0.319808 -0.810077 0.493924 -0.030962 -0.281204 0.431097 -0.816295 -0.121988 -0.288426 -0.693704 -0.754785 -0.256697 0.584660 -0.650289 -0.518224 -0.012972 -0.169033 -0.390088 -0.254828 0.608049 -1.087225 -0.889961 -0.466388 -0.253402 -0.835348 0.079162 -0.718787 0.048000 0.065192 -0.600518 -0.033608 -1.415496 -0.356247 0.758695 -0.626205 0.158170 -1.589327 0.668196 -0.088725 -0.495833 -0.745162 0.924460 -0.104331
little -0.765611 0.128066 -0.310445 1.115180 1.426219 -0.636657 0.865124 -0.347686 -0.052946 0.697493 -0.168992 -0.192009 -0.988891 0.662540 -0.934535 -0.041018 -0.116204 -0.136461 -0.850993 -0.442766 0.094873 -0.205214 -0.292751 -0.361187 0.070740 0.466731 0.172787 -0.030048 -0.786730 0.220105 -0.360359 0.623918 -0.174524 -0.303533 0.125686 -0.839140 -0.862892 1.047508 0.296985 1.093635 -0.520233 -0.319453 -0.258223 0.155462 0.556759 0.279881 -0.376269 -0.119069 -0.066999 0.133727
study -0.151811 -0.761861 -0.262091 1.129309 -0.180801 0.715119 -0.381967 -0.333515 0.296260 0.393415 0.833655 0.348114 -0.116978 -0.075831 0.409635 -0.394416 -0.748624 -0.024599 -0.123527 -0.591094 0.518461 0.418563 -0.738858 -0.860292 0.299313 -0.410854 0.835538 -0.684494 0.057715 0.541899 1.103071 -0.137358 -0.068234 0.534513 -0.258245 -0.289525 -0.301350 -0.170823 -0.217837 -0.653327 -0.206461 0.139184 -0.009333 -0.668969 -0.733237 -0.001389 0.277528 -0.066924 0.904627 -0.145186
group 0.072926 -0.568997 -0.009726 0.076216 0.921669 0.331202 0.335499 -0.121464 1.047135 0.291967 -0.521984 0.113091 -0.148355 -0.217981 0.085204 0.308502 0.085960 0.298011 0.167236 -0.445851 -0.567473 0.157956 -0.030978 -0.123793 0.476858 0.156593 0.284193 -0.544753 -0.065813 0.375876 0.411304 -0.239925 -0.328850 -0.148886 -0.039540 -0.420083 0.532513 0.887745 0.220172 -0.251731 0.386260 -0.773733 -0.729934 -0.395707 0.339803 -0.344675 0.179041 -0.349802 0.064159 -0.071349
bag -1.038124 0.335354 -0.360676 0.005590 -1.177237 0.131481 0.434795 -0.267819 -0.227112 0.696449 0.093043 -1.144400 1.025300 0.224217 0.750594 -0.516823 0.245805 -0.025216 0.076614 -0.726821 0.682628 0.193738 -0.113855 -1.026640 0.563279 -0.164766 0.283378 -0.272448 -0.066912 0.561794 -0.936446 0.650834 -0.553797 -1.296031 -0.330107 -0.209670 -0.293864 -0.111943 -1.006024 0.046862 -0.521629 -0.505312 -0.291905 -0.146518 0.319178 0.763624 0.557163 -0.187304 -0.619056 0.226434
because -0.494715 -0.284756 -0.379386 -0.106102 -0.295662 0.420206 0.524108 0.397265 -0.015414 0.560753 -0.025086 -0.152656 0.139533 0.653697 0.200369 -0.126652 0.580081 -0.310825 -0.350575 0.061961 0.494924 0.597262 -0.295210 -0.775663 -0.056328 -0.587431 0.522019 1.040847 -0.467795 0.373184 -0.258039 0.054411 0.020237 0.092039 -0.430952 -0.078825 -0.078347 0.318655 -0.445988 0.194876 -0.284079 0.008777 -0.614545 0.411541 -0.744622 0.305256 0.661360 0.491281 0.198705 -0.858918
came -0.359118 -0.427772 0.174162 0.352712 0.893807 1.007284 -0.428405 0.110305 0.113990 0.387605 0.832478 0.239579 0.191580 -0.231983 0.720279 -0.372867 0.056359 -0.032231 0.288886 0.070302 -0.787969 -0.075453 -0.468002 0.633079 0.385003 -0.249095 -0.442970 -0.359018 -0.051192 0.252292 -0.158999 0.336702 -0.894039 0.298613 0.210476 -0.290633 -0.003986 0.490911 -0.473023 -0.266108 -0.677042 0.624534 -0.247100 -0.949093 -0.205593 -0.461703 -0.736882 -0.305440 -0.035105 -0.325389
causes -0.043802 -0.607730 -0.815945 0.870206 -0.155703 -0.335229 -0.109970 -0.122085 0.997443 0.096018 0.177629 -0.544436 0.825638 0.483127 -1.151347 -0.092391 0.778358 0.461671 0.280960 -0.273078 1.116675 -0.887089 1.192913 -0.169825 1.201610 -0.968125 0.542558 -0.948713 -1.150406 -0.087037 -0.136629 -0.221485 0.576056 0.352549 -1.365690 0.196670 0.859272 0.017359 -0.399446 0.500960 0.655068 -0.705905 -0.107387 0.332971 -0.038384 -0.408921 1.017091 -0.287672 -0.874349 0.285647
end -0.399292 0.063087 -0.434650 0.218356 0.010193 0.004623 0.604112 0.634459 -0.324659 -0.070068 -0.454163 0.005935 -0.367168 0.019913 -1.174516 -0.369637 -0.273981 -0.125275 0.564091 -0.557495 -0.012244 0.148948 0.253746 -0.294116 0.990640 -0.904938 0.360315 0.079513 -0.092674 0.148643 -0.286900 -0.346892 -0.280261 0.580471 -0.068937 0.019363 0.515306 -0.904108 -0.169642 0.346301 0.741112 -0.160283 -0.498459 -0.659484 -0.148910 0.688166 1.095876 -0.210942 0.208394 -0.264349
hand 0.027119 0.043451 -1.049156 0.033171 1.674428 -0.088013 0.595466 0.038302 -0.579610 -0.157947 -0.373224 0.544168 -0.436735 -0.225834 -0.806001 -0.348305 -0.736865 0.489855 -0.709678 -0.341547 0.169220 -0.136336 0.172519 -0.251649 -0.067885 -0.262629 0.569471 0.665749 -1.064081 0.905498 -0.046835 -0.208472 -0.301742 -0.217632 0.402235 -0.517342 0.080697 0.377369 0.634851 0.535939 1.314498 -0.095106 -0.788559 -0.461565 0.585880 0.164001 0.505120 -0.283874 -0.731990 -0.278585
sent 0.266805 -1.000866 0.698099 0.276010 -0.118235 -0.671698 -0.508163 0.280993 -0.095987 0.521348 -0.377299 0.242650 -0.376263 -0.319923 0.274887 0.392052 -0.760496 0.079681 -0.567284 -0.220537 -0.622537 0.158300 -0.117374 0.630303 0.426055 0.162233 0.502130 -0.051090 0.580805 0.336813 0.278937 0.436087 -0.377400 -0.021232 -0.355661 -0.845425 0.415385 0.500123 0.010648 -0.203920 -0.052938 0.941511 -0.318904 -1.013239 0.055847 -0.535991 -0.456252 -0.461505 0.495910 -0.653309
against 0.097474 -0.354282 0.314532 -0.399395 0.451765 0.400180 0.434023 0.773077 0.248735 0.495852 -0.329799 0.180996 0.725385 0.080626 0.272213 -0.074128 -0.058751 0.621323 -0.233338 -0.166935 -0.270115 0.195851 1.002024 0.098555 0.029859 0.337819 -0.099534 0.295087 0.712993 1.062725 -0.201904 0.457585 -0.943736 -0.043433 0.026020 0.199841 0.439518 0.271033 -0.120650 0.215027 -0.364771 -0.476664 -0.490753 -0.554495 0.013970 0.093180 0.546204 -0.890495 0.410577 -0.209248
called -0.135415 -0.521464 -0.845644 0.425582 -0.641229 0.208453 0.189894 -0.237298 0.223715 0.769961 -0.424649 -0.193387 0.189951 0.478390 0.346247 -0.130325 -0.234293 0.586041 -0.698521 -0.069778 -0.829660 0.201006 -0.180269 0.228272 -0.075828 -0.132067 1.214860 0.564020 0.237117 0.642147 0.402607 0.053113 -0.814237 -0.066420 -0.450595 -0.072544 -0.271545 0.650172 -0.243846 0.195924 0.395219 -0.704341 -0.308823 -0.025253 -0.054275 -0.366077 0.076091 -0.417637 0.388663 -0.559902
contains -0.359219 -0.506870 0.304959 0.448917 -1.205588 -0.207965 -0.389765 -0.449281 0.519659 0.441758 0.096347 -0.409478 -0.165119 0.073799 -0.874048 0.581740 0.018293 -0.831111 0.295397 -0.523814 0.433131 -1.142078 0.428724 0.138929 0.131396 -0.765927 0.246186 -0.399379 -0.735813 0.361810 0.197759 1.458386 0.050280 -0.188516 -0.982182 -0.334281 -0.748259 0.354434 -1.330001 0.165066 -0.327318 -0.675897 -0.223297 -0.241385 0.460588 0.301655 -0.132843 0.621231 0.092123 0.288748
head -0.127553 -0.029869 -0.286531 0.642371 -0.072963 0.281130 0.676206 -0.485653 -0.150143 -0.214621 -0.022207 0.537588 0.657085 -0.129470 0.792489 0.223778 -0.210022 0.180321 -0.668456 -0.338313 -0.218598 0.407401 0.379515 0.184371 0.162968 -0.199430 -0.687507 0.033938 0.392211 0.709717 -0.803584 -0.058554 -0.631800 -0.399785 0.218230 0.284172 0.294457 0.391476 0.168941 -0.495632 0.205000 -0.275286 -0.184020 -1.059550 0.022656 0.239396 0.509861 -0.722842 -0.143897 -0.547589
house -0.506521 0.080272 -0.069821 0.615527 0.245440 0.263559 0.188118 -0.204571 0.162141 0.471278 -0.466032 0.364890 -0.428180 -0.259388 -0.515275 0.580774 -0.027047 -0.413500 -0.067191 -0.224600 -0.118985 -0.922909 -0.703280 -0.979853 0.099550 -0.538287 0.332457 0.342784 -0.187264 0.233961 -0.094833 0.283947 -0.593784 -0.108813 -0.136124 0.012301 0.516516 0.562308 0.382199 0.112766 0.575960 -0.518588 -0.366173 -0.478767 0.016700 0.293903 0.094749 0.143219 -0.770189 0.597772
makes -0.345539 -0.236089 0.283097 0.558259 -0.459007 0.228977 -0.368011 -0.094525 0.059237 1.166183 0.771327 -0.237300 0.103881 -0.059500 -0.042346 -0.115878 0.707721 -0.249612 -0.530025 -0.048121 -0.311644 -0.392501 0.084316 -0.398503 0.003966 -0.264085 0.317749 -0.932464 0.189645 0.530187 0.170540 0.570189 0.436828 -0.379995 -0.295367 0.794838 -0.109482 0.416068 -0.481911 -0.275341 -0.722120 0.110571 0.102613 -0.771085 0.290502 0.517597 0.181879 -0.099499 0.272462 0.003051
money 0.310836 -0.167359 -0.185671 0.087259 -0.825579 0.437040 0.736475 0.083192 -0.215680 0.504281 -0.828948 -1.071137 -0.083080 -0.496769 0.025165 0.131064 0.111515 0.421742 -0.013242 -0.825788 -0.565841 0.320035 -0.710377 0.244725 0.904139 -0.357274 0.693863 0.534749 0.211818 0.837775 0.283106 -0.512089 -0.153165 0.036975 -0.041749 -0.507219 0.201574 0.398173 -0.104746 -0.404254 0.622955 0.358403 -0.057139 -0.239703 0.170235 0.729536 0.461441 0.117079 -0.235869 -0.063920
no -0.712475 -0.303132 0.558087 0.266380 -0.623304 0.284888 1.281144 -0.779293 -0.399955 0.119484 -0.320486 -0.773200 -0.217404 0.552974 -0.249096 0.286863 0.204952 -0.343406 -0.588325 -0.169211 0.264271 0.401403 0.301787 -0.000695 -0.052956 0.006254 0.577807 0.853993 -1.408661 0.053718 0.014391 0.106787 1.083427 0.221541 -0.239792 -0.221110 -1.386372 0.143030 -0.485553 0.355722 -0.587581 -0.566756 -0.032374 -0.103950 -0.006817 0.254933 0.492691 0.113535 0.981638 0.362012
suitcase -0.437465 -0.301613 0.480547 0.330778 -0.394309 0.276160 0.558421 -0.156515 0.499939 0.954173 -0.695295 -1.390137 0.323142 -0.032210 0.396526 -0.792034 -0.320789 0.098202 0.249689 -0.878838 0.158361 -0.727085 -0.857176 0.415048 0.585589 -0.011476 -0.047226 -0.371497 -0.115297 0.963244 0.264024 0.334151 -0.384233 -1.101749 -0.327096 -0.598423 -0.092034 0.492675 -0.714536 0.071652 -0.816184 -0.811784 -0.360929 -0.137959 0.104396 0.556074 -0.118836 -0.086243 -1.104084 0.355174
what -1.121897 -0.353111 -0.189946 0.581489 -0.165759 0.903826 0.762074 0.361249 -0.210092 -0.558126 -0.084119 -0.431370 0.088872 -0.205059 0.163882 0.380772 0.976408 0.282862 -0.085042 0.111276 -0.564698 0.374832 -0.495381 -0.412153 0.532984 -0.089957 0.159678 -0.427800 -1.093013 -0.120792 -0.618072 -0.515028 -0.230590 0.217968 0.797351 -0.342675 0.025765 -0.081858 0.659758 0.177440 -0.076105 -0.376911 -0.314357 -0.866913 -0.099827 0.429793 0.578457 -0.401774 -0.222684 -0.466613
best 1.205600 -0.150837 0.155652 0.211907 -0.047711 0.478136 0.673960 -1.158894 1.216285 0.681008 -0.736373 0.198167 -0.690928 0.008427 0.311574 -0.706515 -0.623057 -0.436194 -0.135778 0.092598 -0.107023 0.070888 -0.785642 0.046309 -0.122875 -0.220158 0.997050 -0.163479 -0.508922 1.373357 1.071621 -0.442556 1.154590 0.457449 -0.012148 0.603101 0.278941 0.942658 -0.448896 -0.028190 1.120853 -0.475653 0.159723 -0.371184 -0.738363 -0.600198 0.275084 -0.117900 0.661764 -0.551622
case 0.579772 -0.334060 0.077037 1.456212 -0.126094 -0.022193 -0.061333 -0.749164 0.199015 0.356355 -0.111100 -0.154424 -0.106829 0.077643 -0.024562 -1.447183 -1.007782 -0.159759 -0.644578 -0.798670 0.469111 -0.426718 -0.105527 -0.519931 0.709106 0.002450 0.806528 -0.242875 -0.414390 0.754605 0.455082 -0.079706 -0.111313 0.195494 0.247386 -0.358972 -0.114863 -0.191065 -0.560091 -0.174951 -0.649709 -0.523642 -0.256925 0.053010 -0.201599 -0.182554 -0.031783 0.202467 -0.480709 -0.209354
got -0.312943 -0.468199 0.479853 0.241265 -0.050697 1.087235 -0.573415 0.846223 -0.130171 0.316422 -0.016841 -0.422566 -0.064576 -0.042229 0.853272 -0.356524 -0.212519 -0.241424 0.231045 0.482135 -1.123385 -1.212915 -1.295281 -0.675223 0.111047 0.279411 0.309088 -1.076731 -0.092018 -0.662058 -0.751586 0.854502 -0.851903 -0.190394 -0.405174 0.340055 0.775067 -0.164802 -0.220572 -0.251156 -1.124298 0.409103 -0.300697 -1.336370 -0.963724 -0.920605 -0.481432 -0.452254 -1.065365 -0.722139
help -0.314527 -0.930861 0.639809 0.270307 0.583882 -0.466146 0.977362 0.149333 0.165097 0.789634 -0.315778 -0.149484 0.365300 0.103521 0.120840 -0.380894 -0.178299 0.756422 -0.764499 0.328003 -0.193825 -0.009823 -0.279331 1.028425 0.209010 -0.128395 0.100382 -0.219439 0.409163 1.023192 0.014275 -0.487923 -0.008237 -0.403373 -0.157402 0.425625 0.626049 -0.132439 0.592857 0.235876 -0.779387 0.120678 -0.241445 -0.972718 0.259446 0.043310 0.537804 -0.463557 0.618305 0.081199
human 0.439985 -0.522724 -0.670658 0.013375 -0.561305 -0.399560 1.086359 -0.007195 0.469681 0.342635 -0.378432 0.450026 -0.068893 0.128345 0.744361 0.037051 -0.307688 0.259990 0.291266 0.068042 0.470940 0.178404 -0.741261 -0.066869 0.180941 0.216585 0.414008 0.195002 0.005024 0.099299 -0.071258 -0.363627 -0.061195 0.268513 -1.095411 -0.306960 0.746404 0.280512 0.202178 0.212364 0.957742 -0.258430 -0.355427 0.056374 0.075021 -0.657028 0.379793 -0.059221 -0.465501 0.408086
poured 0.731442 0.349697 -0.124931 0.147304 -0.503393 0.737735 -0.600808 0.342306 -0.935915 0.211787 -0.392513 -0.697891 -0.979248 -0.055120 -0.648238 -0.211051 0.229688 0.416508 -0.087344 -0.542890 -0.845778 0.577758 -0.638048 -0.589619 0.448446 0.237468 0.916492 0.082102 0.727442 0.517790 0.118552 0.197684 -0.960252 -0.279353 0.152976 -1.343152 0.103101 0.547020 0.437044 -0.153149 0.685315 0.584533 1.260009 -0.596746 -0.351316 0.160145 0.034943 -1.109337 0.022195 0.354104
she -1.032163 -0.954405 0.525351 -0.252532 -0.275035 0.876119 0.465025 -0.043587 0.020403 0.518017 -0.500974 -0.741453 0.551368 -0.622208 1.077594 0.100156 -0.362269 -0.200999 -0.674829 0.667144 -0.461999 0.153357 -0.364343 -1.094006 0.245559 -0.066889 0.199518 0.627838 -0.594419 0.863428 -0.098505 0.500276 0.242895 0.219782 0.574898 0.808231 -0.212502 -0.788974 0.203205 0.895829 -0.402899 0.779007 -0.856506 -0.327930 -0.061632 -0.077903 0.264860 -0.772100 0.035725 -0.237755
another -0.173621 -0.042103 -0.383797 0.672911 0.023546 0.062239 -0.025384 -0.126092 0.469841 0.197360 -0.480335 -0.499619 0.036348 0.258626 -0.698292 -0.121021 0.310056 0.627913 -0.470478 -0.670602 0.609086 -0.289556 0.274291 -1.544645 0.976922 -0.537820 0.562001 -0.378639 -0.686377 0.309119 -0.394526 0.326431 -0.141561 0.363832 -0.267559 -0.057606 0.243640 0.049267 0.038679 0.480003 0.512905 -0.222505 0.152654 0.239083 -0.269764 0.178391 1.094923 -0.340739 -0.674570 -0.096024
comes -0.768575 0.139440 -0.184060 0.239339 0.418269 0.577136 -0.244878 0.313108 0.253847 -0.268976 0.501852 -0.216646 -0.161532 0.199130 0.399008 -0.006355 0.182582 -0.295714 1.260609 -0.446039 -0.205619 -0.762925 -0.312187 -0.446813 0.064812 -0.832225 0.599480 -0.209121 -0.134006 0.224292 -0.407941 0.993011 -0.335444 -0.208018 -0.506317 -0.250375 0.274794 0.704422 -0.610153 -0.300892 0.312258 1.005515 0.177296 0.170607 -0.808096 0.110012 0.439697 0.410660 0.035847 -1.442150
